term_str,0,1,2,3,4,5,6,7,8,9,10,11,12,13,14,15,16,17,18,19,20,21,22,23,24,25,26,27,28,29,30,31,32,33,34,35,36,37,38,39,40,41,42,43,44,45,46,47,48,49,50,51,52,53,54,55,56,57,58,59,60,61,62,63,64,65,66,67,68,69,70,71,72,73,74,75,76,77,78,79,80,81,82,83,84,85,86,87,88,89,90,91,92,93,94,95,96,97,98,99,100,101,102,103,104,105,106,107,108,109,110,111,112,113,114,115,116,117,118,119,120,121,122,123,124,125,126,127,128,129,130,131,132,133,134,135,136,137,138,139,140,141,142,143,144,145,146,147,148,149,150,151,152,153,154,155,156,157,158,159,160,161,162,163,164,165,166,167,168,169,170,171,172,173,174,175,176,177,178,179,180,181,182,183,184,185,186,187,188,189,190,191,192,193,194,195,196,197,198,199,200,201,202,203,204,205,206,207,208,209,210,211,212,213,214,215,216,217,218,219,220,221,222,223,224,225,226,227,228,229,230,231,232,233,234,235,236,237,238,239,240,241,242,243,244,245,246,247,248,249,250,251,252,253,254,255
a,-0.08861767,-0.0038092912,0.0054032463,-0.023265868,0.12300699,0.026336996,-0.044932522,-0.07263928,0.12375592,0.11700369,0.0045407596,0.036684986,0.10890081,-0.11353141,-0.07469802,0.006551398,-0.040032253,0.014464573,-0.062447816,0.08626586,-0.046065178,-0.15936854,-0.07688964,0.009575962,-0.10254393,0.0999818,0.02580796,0.02996744,-0.041268896,-0.072556555,-0.0009183683,0.013625176,-0.048099898,-0.05658613,0.09720794,0.018753858,-0.09420042,-0.057455365,0.013429177,0.014081712,-0.13801649,-0.001196047,-0.10017266,-0.11968799,0.025311815,-0.04939917,0.16189563,0.06411207,-0.038239136,0.061498176,-0.02166018,0.15297686,0.007971203,-0.027839877,0.018358275,0.036119185,0.028745787,0.05337635,-0.0011272844,0.018354578,-0.0812007,-0.00623535,0.07246859,-0.00061800226,0.06367312,0.058104053,-0.0002948525,0.031895623,-0.0103811305,0.053243857,-0.017911868,-0.06533045,-0.0022801368,-0.07644398,-0.01488003,-0.08365776,0.0819992,0.06919403,-0.021216482,-0.020141639,-0.07983247,-0.039827365,-0.020492723,0.044071548,-0.08744788,-0.031792074,0.07593762,-0.0583215,-0.013164879,0.02928158,0.010122241,-0.0836993,-0.007161861,-0.08729629,-0.12545022,-0.034807444,-0.010839494,-0.084641874,0.07397687,-0.07148683,-0.025067983,-0.12516859,-0.010848846,-0.039078977,-0.003885747,-0.02562862,-0.079540186,-0.049628135,0.013358147,-0.014026644,-0.029408854,-0.006031907,-0.018467594,0.04533388,0.031609446,-0.08603149,-0.06811293,-0.10980843,-0.03517125,0.08756405,0.025947098,-0.05961685,0.10146113,-0.07656604,0.061338022,-0.011674993,-0.009801171,-0.083058864,0.06375587,0.09103577,-0.08907017,0.034173798,0.0319433,-0.01825684,0.03462766,-0.026191663,0.002476855,0.09487879,-0.0048519033,-0.06604107,0.037167214,0.06317959,0.084351726,0.063692585,-0.085290596,0.048532866,-0.07101874,0.124640055,0.042885404,-0.031590044,-0.030524913,0.13776825,-0.06470676,0.060279343,0.002202793,-0.06372667,-0.019672498,0.080761366,-0.08288421,0.002712152,-0.013224401,-0.017102236,-0.11213317,-0.05060865,0.027405435,0.05188519,0.057687867,-0.123116925,-0.078280054,0.04363405,0.090947755,-0.035718534,-0.112815976,-0.018602958,-0.13325477,-0.04156734,-0.00081966503,0.012071599,0.07650176,-0.07835639,-0.072120905,0.11829119,0.020371197,0.05392851,0.07116235,-0.010395161,-0.041829936,-0.049791098,-0.0145185655,0.024388604,-0.0771926,-0.07757344,0.022556748,0.0013589159,0.06382418,-0.024495143,-0.064143695,0.08167857,-0.098472886,0.07172296,-0.08474328,0.10897242,-0.020353677,0.18111043,0.003439836,0.07437736,-0.08955072,0.003834593,-0.004637068,-0.005176187,-0.018766737,-0.080851294,-0.016120518,-0.1002269,0.046486683,-0.02604939,0.022253722,0.05151765,-0.08252024,-0.016766082,-0.02675856,-0.05477889,0.025081312,-0.019437542,-0.074030824,0.047446556,0.012319616,-0.0038352688,-0.026963275,0.028561998,0.019280357,-0.056214407,-0.009100426,0.018142866,0.057536606,0.010946982,-0.01671563,-0.02644691,0.05016602,0.001393304,-0.04955129,0.046920054,0.045559123,-0.07485623,-0.022722866,0.01592379,0.08445928,0.03246534,0.04687049,-0.026161866,0.050115246,-0.036124177,0.020521352,-0.045952644,-0.051547565,-0.01026816
aberfoyle,-0.046969675,-0.066677146,0.0340205,0.05994238,0.056626346,-0.042943306,0.10002147,0.006361284,0.030267557,0.06293403,0.002534261,0.022157643,0.053463895,-0.0485742,0.03350655,0.13439007,0.011247793,0.033819236,-0.12961896,0.10568596,0.0007133187,-0.041472267,-0.043097008,-0.034256753,-0.106177725,0.008453826,-0.016747167,-0.01815033,-0.06496461,-0.050241027,-0.0018526867,-0.030815339,-0.07406686,0.03841261,-0.018193183,0.0959168,0.01730064,-0.07326857,0.020243645,0.009228645,-0.10968208,-0.005376252,-0.05372098,-0.053918995,0.07049531,0.011733249,-0.03065158,0.039197095,0.025686512,0.011866242,-0.019055955,0.017822942,0.050987676,0.024824357,-0.018771188,-0.031649355,0.076472014,-0.018527266,0.008926812,0.0698238,-0.06760298,-0.02855447,-0.07485954,0.06692578,0.037216958,-0.076914914,-0.048182696,0.07824759,-0.075035036,-0.038308468,0.036045555,-0.0075368825,-0.055466156,-0.14086026,-0.033338513,-0.052072864,0.00710543,-0.040532906,-0.048157685,0.062789254,-0.01364009,-0.025412533,0.03006003,0.19457689,0.03541281,0.026266607,0.12317558,-0.10796293,-0.024714781,0.003336994,-0.018428624,-0.13902713,0.06940382,-0.03314641,0.10514802,0.09435016,-0.13884923,-0.05777305,0.056958094,-0.021403674,-0.10683599,0.03304949,-0.00050773745,0.058290683,0.018945929,-0.017507445,-0.06861849,-0.056720387,-0.063722946,-0.12712006,-0.0075390376,-0.028746476,-0.013128753,0.060301702,-0.018817551,0.05737656,-0.010833591,0.023956392,-0.021715773,0.11188747,0.053296216,-0.08416301,0.10638061,-0.037343405,-0.0009218716,-0.03552618,0.08133029,-0.04572125,0.08934568,0.013654782,0.10740748,-0.036046594,0.007331686,-0.07056359,-0.045927584,-0.029884316,-0.014256812,0.07686078,0.053563796,-0.028590897,0.052517693,-0.062258642,0.0065208245,0.06866028,-0.15134335,0.09668338,0.061374106,0.1150675,0.046282534,0.06503853,0.016575312,-0.024301993,0.055110406,0.03086855,-0.072328195,0.07777331,0.07427454,0.03582686,-0.079435565,0.051992178,0.031282723,0.05596475,0.052209646,-0.106956206,0.06456823,0.017171256,0.058132894,0.026675267,0.057410102,0.054510303,-0.020538623,-0.10118671,-0.005018566,0.024269583,-0.08706133,-0.044567898,-0.08124429,-0.023117408,0.10844938,-0.0033974086,-0.0010886618,0.0017902878,-0.008513473,-0.02590832,0.09268234,0.032599427,-0.16698228,-0.081319,-0.07183676,-0.110640936,0.054425504,-0.06805246,0.035394568,-0.06840723,-0.0053221183,-0.002541146,0.07173668,-0.08586351,-0.06320798,0.014852114,-0.110314004,-0.024851933,0.022679798,0.012183194,0.045018956,-0.017496444,-0.1365679,-0.019706398,-0.022010261,0.017941732,-0.017048256,0.025310276,0.089548536,0.01599621,0.0625841,-0.071111865,0.034591887,0.14619939,-0.11232195,0.006129447,-0.056637052,0.04172058,0.07914508,-0.049549982,0.060213078,-0.07232684,0.06687907,0.020940563,-0.09301285,0.06281639,0.032345604,-0.11058756,-0.005520177,0.024034942,-0.012828061,-0.008995431,0.044066634,0.015218268,-0.048980776,-0.04222487,-0.018998913,-0.00024991442,-0.028290432,0.09830296,0.012597033,0.006569079,0.06993166,0.0700466,-0.05382242,-0.028885666,-0.09348835,0.05808458,-0.05049755,-0.016344238,-0.13004546,-0.032291193
able,-0.04933851,-0.13608213,0.085635126,0.005876859,-0.04434328,-0.09326964,-0.03503677,-0.060746472,-0.04459262,-0.119813845,-0.081405856,0.0022136883,-0.037502468,-0.056189857,-0.051683426,0.0080903955,0.06703599,-0.065885074,0.0855715,-0.004326654,-0.03713241,-0.034416467,-0.020323135,0.09502094,-0.08053441,0.060496066,-0.09004224,-0.0057277763,0.03669692,-0.0058330013,0.08569118,-0.04181932,-0.113405146,-0.053048164,-0.004400788,0.046518844,0.023491079,-0.011968378,-0.033519033,0.0113782175,-0.0726568,-0.02284361,0.085953645,-0.035145085,-0.021786217,-0.057881575,0.09613505,-0.051842388,0.0017401082,-0.15958123,0.1455086,-0.073288456,-0.07614523,-0.039389208,-0.013509899,-0.11117259,-0.004066267,0.05511976,0.03891175,-0.011466919,0.04104105,0.05629032,-0.023119312,0.086610235,0.08831275,0.084351994,0.0012673727,0.052248955,-0.036879104,0.10140324,0.014587789,0.0059763435,-0.024191301,-0.07620245,-0.08222489,-0.03710009,-0.15542929,-0.058670335,0.027217338,0.059444536,0.045451168,-0.059480064,-0.013317398,0.08465902,0.067928694,0.008703908,-0.028053066,0.0011045779,0.017961958,0.038892735,0.02376123,0.06805267,0.10000389,-0.038129374,0.009951558,0.056578815,0.017487444,-0.011975991,-0.019985741,0.029215585,-0.03775982,0.05132425,-0.0033322824,0.044208225,0.010488936,-0.05278834,-0.039915215,-0.014620597,-0.007278454,0.0037715386,0.06283027,-0.04252212,-0.050858553,0.010448925,-0.015161643,0.0038818386,0.056622196,-0.082908526,0.019783635,-0.008362224,-0.06445665,-0.14969434,-0.030733032,-0.03835587,0.016105628,-0.027194742,-0.0105516,-0.1572009,-0.001081761,-0.029142117,-0.01249436,-0.09764709,0.010334985,-0.038336292,0.05262393,-0.08490649,-0.06368392,0.0059979004,0.015777469,-0.013349558,0.0051388126,0.08801221,0.038329612,-0.056797866,0.015768133,-0.017946178,0.0043129185,0.0057337,-0.010216976,-0.06404618,-0.050668523,0.12081491,0.073996976,-0.039118037,-0.012271394,-0.012996955,0.010862998,-0.06111757,-0.04207383,0.0850171,-0.078320384,-0.0049660713,-0.060581677,0.017405357,0.028521251,-0.115389936,-0.06359721,-0.00033168847,-0.08860437,0.09405966,-0.014863408,0.09855997,0.00838822,0.008969091,-0.025642093,0.1343526,-0.08952084,0.06456806,-0.048050243,0.059655625,-0.0023938776,-0.02200747,0.09563445,0.055469688,0.044646252,0.03490082,-0.13540915,0.034355137,-0.13414982,-0.008509439,0.062118374,0.040505398,0.014789784,-0.0050554695,0.0693426,-0.07007475,-0.013823608,-0.07073711,-0.03703647,-0.07755844,-0.005609604,-0.028944492,0.030644612,0.0050199805,-0.078894444,-0.04915854,0.09083684,0.023895461,-0.017396359,-0.020878227,-0.009867451,0.05069881,-0.020113593,0.12999721,-0.023779524,-0.051315933,0.12527223,-0.009500508,-0.0033468225,0.06763137,0.15414582,0.00093662296,0.110306874,0.12849407,0.0034572298,-0.060589198,-0.013335535,-0.007526053,0.026912756,0.055777356,-0.19149745,0.05110774,-0.0324309,0.06310659,0.045239635,0.09828566,0.018733867,-0.006630163,-0.15250637,-0.024714751,-0.045501124,0.03199706,-0.12057134,-0.03441268,0.00824052,-0.0470198,0.05218833,0.058889303,0.04562612,-0.03812062,-0.15982264,0.08537278,0.011443722,-0.0013022965,-0.05901026,0.027122185
about,0.053294506,-0.030120943,0.049874794,-0.06855363,0.09604926,-0.033110783,-0.010016232,0.02977833,-0.075880915,0.022214986,-0.008447438,-0.019411096,0.13817954,-0.0382971,-0.048646457,0.048636384,0.061789975,0.008532522,-0.014857776,-0.015231721,-0.028726218,-0.077310964,-0.060318887,-0.04531335,-0.03749026,0.097998306,0.007069213,0.051613,-0.025529383,0.12366305,0.0039999746,0.0061283065,0.00089939934,0.016694311,-0.016547183,0.12578943,0.07793109,0.04491156,0.043433033,0.0036720843,-0.09180325,0.027635247,0.04710979,-0.078539334,0.0141924275,0.008937043,0.03706763,-0.07325002,-0.02756179,0.025868744,0.0863108,0.015201652,-0.044116884,0.031229058,0.04477387,-0.07569792,-0.08673083,-0.027961878,0.028631708,0.053405967,-0.05003801,0.10292748,-0.014613693,0.0328769,-0.04356443,0.05052165,0.06622428,-0.0320295,-0.031000996,0.071423315,0.017905721,-0.04004479,0.007639,-0.08626358,0.06726929,0.011056908,-0.029493207,0.043557584,0.021159638,0.053127788,-0.14405717,-0.050974265,0.11020286,0.07445243,0.07406678,-0.0020205902,-0.047156636,-0.013656543,0.025103932,-0.03604403,-0.021818027,0.005580774,0.052702628,0.11506877,0.042153917,0.10666836,-0.00802064,-0.012460365,-0.07351342,0.0373962,-0.07197946,0.091768235,0.026495554,0.013152876,0.1375454,-0.028449342,0.10296745,-0.006566477,0.008636159,-0.027661705,0.078695714,0.10442403,0.09976621,-0.009048826,-0.034807928,0.039110556,0.049421564,-0.048367072,0.18268164,0.113577604,-0.0013931624,-0.051346794,-0.022332733,-0.025669001,0.053704087,-0.0040344903,-0.03232408,-0.036005747,-0.0065702316,0.093017906,0.17683949,-0.02843852,0.039365005,-0.057112295,0.024164274,-0.09544638,-0.0073767905,-0.017013462,0.016508678,-0.009277526,-0.0015331046,0.048096787,0.15201266,-0.1096353,0.026318742,-0.052879438,-0.13205916,0.023997344,-0.0025514557,-0.08179401,-0.055721197,0.02353374,-0.14467245,0.030149309,0.015738178,0.037816815,-0.043783884,-0.08103444,-0.08330463,0.07955979,0.04930995,-0.0015926202,0.009578335,0.03482186,-0.053840186,-0.023577055,-0.1304967,-0.06380004,0.08839818,0.07907867,-0.027185826,0.13561627,-0.045633044,-0.1267703,-0.03778556,0.06141655,-0.028465016,-0.049441326,0.09641942,-0.088521816,-0.03846126,-0.037963614,-0.049892977,0.017820915,0.025932537,-0.007549057,-0.09322888,0.026242798,0.010356424,-0.011702524,0.013341711,-0.03368815,-0.005044662,0.025000544,-0.009548916,-0.042525716,-0.12934597,0.024349608,-0.07265934,-0.025111338,0.009245176,0.03846731,0.10409706,-0.03877561,0.029676782,-0.033625025,-0.020425104,-0.013454457,-0.1376411,-0.007092465,-0.032895297,-0.05118264,-0.02558125,0.062079757,-0.020277685,0.048071496,-0.06822362,-0.004803794,-0.046174537,0.028777607,0.015837532,0.057806674,-0.083806425,0.08905498,-0.014741554,-0.0984086,-0.14731188,0.08001056,-0.13100548,-0.0007461506,-0.071895964,0.09936016,0.07053416,0.03185132,-0.06083436,-0.008268755,-0.056541998,0.009996135,-0.08374995,-0.052527808,-0.038517132,-0.09193984,0.0026813198,0.010859225,-0.008860634,0.12202806,0.0012113967,-0.015889801,0.10553189,0.07516788,-0.015564571,0.05844098,-0.025345406,-0.064645514,-0.015627006,0.086130604
above,0.015297645,0.0063834507,0.016961759,-0.031733777,0.04685061,0.06975871,0.061661217,0.02344759,0.02234214,0.053634107,0.031851992,0.030850945,0.0933405,-0.032235686,0.03956285,0.054756347,0.12087527,0.07161747,-0.022786336,0.036953807,0.040859737,-0.026821114,-0.041708253,-0.09896288,-0.039500743,0.00020659194,0.023914032,-0.07101603,-0.11760757,0.038328227,-0.043934092,-0.043056324,-0.02526326,0.028074075,-0.07216624,0.034300033,0.013391718,-0.038871594,0.0852048,0.008085359,-0.023258438,0.04610963,0.03313999,-0.14770101,0.06953755,-0.018379053,-0.06313794,-0.043724086,-0.017834725,0.08268681,0.0084583,-0.016634503,0.013235068,0.046682846,0.038215593,0.08920414,-0.021505004,-0.051533766,-0.030320488,-0.0027673063,-0.06930581,-0.01440987,-0.10467136,0.031044897,-0.021781119,0.06472397,-0.035119887,0.08319613,-0.006689328,0.016081268,0.029366931,-0.013083888,-0.015156172,-0.021762356,0.012236372,-0.009262438,-0.061303176,0.07304089,-0.008899976,0.022416981,-0.06050566,0.008695254,0.06983901,0.14750214,-0.02531022,0.047166422,0.046324696,-0.022199484,0.09607369,0.0027895994,-0.042112257,-0.1368104,-0.08875808,0.081817,0.09955929,0.07169201,-0.07071944,-0.079092205,0.008478844,-0.0070832665,-0.021148143,-0.0009198253,-0.036503665,0.023694828,0.13047253,-0.04998598,0.052212358,-0.012620381,0.0064379214,-0.12089888,0.046409596,0.04148993,0.10678506,0.011222087,0.10213054,0.014072703,0.065528885,-0.043802727,0.073206976,0.025512028,-0.03873675,0.02443102,0.09219456,0.013481764,-0.03940352,-0.00029194012,-0.0300542,0.06553448,0.016155014,0.023047056,0.08314912,0.058090214,-0.0012888096,-0.06920143,0.0037876137,-0.057354264,0.00042136203,-0.035128333,0.06286676,-0.17447384,0.04037608,0.003515337,0.07197382,-0.041118246,-0.070666626,-0.05591259,-0.0016330389,-0.029198423,0.050355483,0.027865129,-0.016177054,-0.048390098,-0.10020141,0.0072974446,-0.03903901,0.0021593606,-0.015356749,0.07494229,-0.08521043,0.010350003,0.046474785,0.020449946,0.16161588,-0.04583882,0.03510149,0.01570261,0.02907765,0.058859047,0.15516548,0.102949224,-0.10886432,0.031148724,-0.12708654,-0.08387998,-0.09029777,-0.039492417,-0.03536582,-0.086696655,0.15465753,-0.07689557,-0.03466602,-0.04569947,-0.16407011,-0.030364953,-0.0051531317,-0.048662644,-0.065627955,0.041305464,-0.011034981,-0.052162252,0.026906352,-0.046221785,-0.042201128,-0.0301318,-0.07235802,-0.0456226,-0.079451546,0.030758917,-0.094786696,-0.034408744,-0.13296202,-0.009198653,0.10419109,-0.10747826,0.0051502413,0.03067579,-0.077085756,0.023461772,-0.12827021,-0.01415885,0.029598253,-0.042514067,0.1428414,0.01996181,0.07275626,-0.0395329,-0.026640154,0.09624747,-0.086794175,0.0046325605,-0.033582035,0.1584412,-0.04378505,-0.02999583,-0.06283736,-0.029626943,-0.03487841,0.09014648,-0.058038697,-0.03505269,0.06494244,0.03674852,0.038309596,-0.07667957,-0.04245003,-0.094567545,0.012237256,-0.019483244,-0.013722039,0.010136968,0.022393553,-0.054750245,0.026236763,0.15600032,-0.049754344,0.1019352,0.047871254,0.042202212,-0.017746298,0.0004870573,0.01822363,0.06778006,-0.015032725,-0.09980893,-0.027423708,0.08862111
absolutely,-0.04198791,-0.13781358,0.019269777,-0.03520648,0.06673385,-0.001028477,-0.07363405,-0.046280902,0.017938923,-0.029906465,-0.095796205,0.035052355,-0.009299413,-0.18153222,-0.067007,-0.036424678,0.12859102,-0.012162394,-0.03205327,-0.07273509,-0.029574025,-0.003542057,0.01992386,0.06750977,-0.048909497,0.032462567,0.050677016,0.018583706,0.02282906,-0.019617332,-0.031574152,-0.005438128,0.017795574,-0.012909698,-0.10457824,0.14364415,0.063856885,-0.03695835,0.047531072,-0.0042747543,-0.098013386,0.032651998,-0.03499579,-0.027819602,-0.030093912,0.04244572,0.05499682,-0.013292008,-0.099787064,0.015463494,0.08187385,0.037623312,0.010968421,0.08141456,-0.051141296,-0.10608048,0.03477385,-0.014735437,0.041976985,-0.025473492,0.032422036,0.09741304,0.0108129205,0.023572443,0.14212625,0.0637541,0.014408196,0.05972839,-0.046327785,0.118946224,0.091614954,0.036961515,-0.090667054,-0.08888475,0.020108981,-0.037140284,-0.25111392,0.017584993,-0.019775137,0.080194235,0.007356669,-0.0115456665,0.088302866,0.05535137,0.08259593,0.050731987,0.02742295,-0.06530472,-0.059050523,0.033336792,0.00913968,-0.020856973,-0.005954657,-0.030620456,0.042449787,0.029339364,0.04405882,-0.16279037,0.035022028,-0.066833965,0.032841682,0.059021976,-0.065907106,0.030644916,0.04111545,-0.1309486,-0.04396235,-0.09895877,-0.013299597,-0.059623707,-0.019779075,-0.009048259,0.057541028,-0.007915806,0.039598726,-0.10918918,0.053852145,-0.038350847,0.023028899,-0.024750877,0.0107898675,-0.1195751,-0.023088263,0.09077788,-0.0027747073,-0.0748311,0.03513017,-0.08564818,-0.04207987,0.021990007,0.046483465,0.00063174556,-0.029889943,-0.020438379,0.07316656,-0.0692492,-0.017252943,0.05217497,0.004655087,-0.07829854,0.012803483,0.07032103,0.07587466,-0.049843583,-0.007487522,-0.058772705,0.01420559,-0.041277446,0.009314285,0.07514083,-0.046171162,0.09895395,-0.038508315,-0.008224633,-0.03222883,0.010321655,0.090470485,-0.0010148486,-0.048052214,0.1431526,-0.12860729,-0.0026076394,-0.0016721288,-0.028329918,0.08794387,-0.036689375,-0.042301163,-0.013485207,-0.03381695,-0.035430424,0.030658355,0.072472565,0.02459399,0.039102245,-0.073480286,-0.006694996,-0.017666675,-0.050508995,0.0042410498,0.03010691,-0.022006053,-0.06445222,-0.011610212,0.16196461,0.06558864,0.007009317,-0.09343197,0.0036738229,-0.076958716,-0.039331414,0.065754026,-0.023501605,0.047278184,-0.07122596,0.034645878,-0.07755197,0.026648516,-0.12028827,0.020775244,-0.0055904817,-0.1472989,0.01413239,0.036141787,-0.11791769,-0.006953912,0.015127575,0.054135226,0.07807649,-0.031583328,-0.09447769,0.010315794,0.050839636,-0.046744887,0.11828295,-0.046857625,-0.0019162744,0.07366445,0.007025604,0.006926464,-0.006632276,0.092784084,-0.07653473,0.06417419,-0.008076141,-0.0742254,-0.03839808,-0.060415387,0.030588588,0.034121905,0.0031507807,-0.10111581,0.14149769,0.0063822027,-0.006074171,0.05207162,0.034670074,0.033198174,0.000583976,0.023946878,-0.03371193,0.056764998,-0.039551146,-0.022289084,0.06681559,-0.043252658,0.102547795,0.062173378,0.047789235,0.041960314,-0.0033696727,-0.10537291,0.06640193,-0.06931061,-0.03291783,-0.13056973,0.02699648
accompanied,0.00090253004,-0.09199041,-0.029240014,0.008022439,-0.0255617,0.028323645,0.07912248,0.036257833,0.01276888,0.02146178,-0.057835247,-0.04910552,-0.016026802,-0.049827993,0.015450979,0.02722572,0.0733447,-0.00088563404,0.008956879,0.019619122,0.023480756,-0.13841258,-0.050782144,-0.09444263,-0.06671987,0.041474048,-0.031430397,-0.08104509,0.043519814,-0.041980505,0.003914374,-0.033863693,0.010457796,0.05033246,0.03220583,0.09486012,0.023596333,-0.09619583,0.05973665,0.04434929,-0.049231768,0.114837214,-0.021021646,-0.040586818,-0.013576487,-0.073654264,-0.050820384,0.049206052,0.03366133,-0.011287228,-0.0620197,-0.025651667,0.089884736,0.093893364,-0.024679841,-0.07053041,0.008333152,-0.019827733,0.034054868,0.010166807,-0.0048410217,-0.060935464,-0.021488898,0.024496209,0.12437155,-0.11146731,0.060749248,0.09365649,-0.05489737,-0.19487369,0.010391975,-0.07157995,-0.0864679,-0.10097568,0.0063025523,-0.042529095,0.018468654,-0.03610863,-0.06863862,0.001706973,0.018419048,-0.0063115223,0.021120567,0.040545356,-0.08031066,0.08687816,0.08864619,-0.19080155,-0.00671225,-0.06684303,-0.07557503,-0.09796264,-0.032815002,-0.07603068,0.098813966,-0.046909038,-0.060678564,-0.03958813,0.015621833,-0.034854557,-0.07550556,-0.017036038,-0.029340163,0.037634745,-0.012977685,0.044393267,-0.030136978,-0.09976324,0.08475301,-0.090961926,-0.042866554,-0.007963532,-0.018003047,0.038065173,0.0020067175,-0.013802507,-0.032406606,-0.08627634,-0.030268915,-0.0054463823,-0.08991654,-0.07624527,-0.057673927,-0.010272448,-0.12779339,-0.018466437,0.045073014,-0.059368793,0.0009900441,-0.03492035,-0.018149324,-0.009839788,0.011197729,-0.08466703,0.110281006,0.025425855,0.021312872,0.0066762716,0.08253508,-0.05423355,0.102113195,-0.06910745,-4.6942034e-05,0.0092250975,-0.14249548,0.024437511,-0.07718841,0.13340735,0.075288124,-0.112034306,-0.051314484,0.028896686,-0.05575272,-0.14634506,-0.0005888122,0.03349154,0.074478894,0.029887207,-0.06664963,0.08698927,0.058608584,-0.012502551,0.044831064,0.065435134,-0.009871016,0.020214602,-0.0817227,0.03589784,0.03687731,-0.014886725,-0.024832187,0.09125307,0.035421688,0.15615408,0.0064363508,-0.0111989435,0.012111834,0.09427215,0.057836678,0.10156921,0.0299285,0.08627259,0.022771835,-0.07724968,0.15062869,-0.017250072,-0.05166901,0.10506092,-0.044874724,-0.0070519806,0.0034544384,-0.113524765,-0.0007176689,-0.09786997,-0.03920191,-0.084654115,0.045337196,0.038412545,0.051823862,-0.045107666,-0.018751143,-0.0027395398,-0.009485763,-0.0143078165,0.08734486,-0.007890838,-0.092596225,0.03406425,0.048586197,-0.11612177,0.064706616,0.11817691,0.09080609,0.08533708,0.048268802,-0.008706982,0.026104469,0.02313198,-0.0065446775,-0.0077768667,-0.011721416,-0.01479314,-0.043875773,-0.079560906,-0.0016803137,0.027876858,0.03747669,0.044781886,-0.059754606,-0.063506424,0.10760854,-0.050784644,0.01866905,-0.0081122555,-0.0073253782,0.037318524,-0.031531896,0.03442765,-0.061463464,0.07420264,0.06843446,0.054358084,0.06979922,0.048251476,-0.099477634,-0.043754593,-0.010957228,0.075015225,-0.04894931,-0.09270107,0.029221535,0.071877524,-0.010869004,-0.13351887,0.041969586,-0.013803145
accomplished,-0.048875522,-0.14711712,-0.004150054,-0.03299118,-0.0019141616,0.012458285,0.01899523,-0.074885204,0.006944265,-0.042776536,-0.02915298,0.0060855276,0.028410356,-0.11541622,0.054425687,0.04295173,0.054642275,0.018044017,0.012948224,-0.013441828,-0.030190105,-0.06200688,-0.051941756,0.076713696,-0.032990683,0.11293649,0.09229003,0.018205144,0.034264654,-0.046382613,-0.00089952955,-0.050166324,-0.022520138,0.051340993,0.013945499,0.18694168,0.088426776,-0.00025611196,0.08203966,-0.02972018,-0.12668887,0.0071311933,-0.022518823,-0.07742319,-0.079939075,-0.00027296602,0.08136873,0.012345288,-0.01947223,0.08871254,0.071430884,0.06360051,0.058009207,0.1165073,-0.04011135,-0.06385238,-0.016535642,0.05848591,0.05802949,-0.034772564,-0.015623767,0.023908453,0.05233723,0.054634225,0.16286623,0.011475096,-0.0061044423,0.023866404,-0.06520077,-0.060613032,0.1358336,-0.027698787,-0.053471293,-0.053751934,-0.012560024,0.0028884758,-0.037445664,-0.07224109,0.0029467468,0.06273738,0.039024927,0.022864698,0.11195291,0.031815376,0.0020698127,0.067431845,0.042451948,-0.1304363,-0.070698015,-0.033523213,-0.029211266,-0.12121556,0.0861737,-0.09032701,0.122287124,0.023088975,0.06283877,0.012460931,0.040078238,-0.08867803,-0.1379497,0.026778886,-0.0069320295,0.07228036,0.018869147,-0.006513685,-0.0115673905,-0.051318817,0.00018979638,-0.1132767,0.075087205,0.09261653,-0.014200842,0.014863901,-0.04729806,0.0031611933,0.024686715,-0.09185001,0.070848934,-0.0060567986,-0.012197408,-0.09241799,-0.024711316,0.009439977,-0.033227406,-0.10731086,0.012627178,-0.10651562,-0.054439917,0.027247058,0.08152679,-0.0010233351,-0.022472445,-0.085387155,0.11285468,-0.06544916,-0.077075705,-0.003854262,0.006635013,-0.013390887,0.047393188,0.0954191,0.052279312,-0.10041738,-0.054105673,-0.0031803024,-0.024414591,0.11452209,0.073548935,-0.077129476,-0.08007565,0.17007926,-0.07892858,-0.10544537,-0.042389233,-0.0067357155,0.07878093,-0.0308348,-0.024798393,0.070600174,0.017959815,-0.053697344,0.047216613,-0.036647838,0.010923536,-0.121110044,-0.082591906,-0.019649444,-0.0054174955,-0.019631054,-0.030420152,0.12746818,0.039626252,0.07940382,-0.010506713,0.026543962,-0.022018122,0.016959582,0.0027112246,0.047717392,-0.008994791,-0.029700818,0.054624528,0.08325331,0.112726755,-0.009025675,-0.10985204,0.06530406,-0.061910674,-0.029712591,0.0408213,-0.061037917,0.0889239,-0.077428624,0.03690758,-0.08166962,-0.012834964,-0.025608692,-0.03485314,0.02723679,-0.054182254,-0.004941956,0.002368968,-0.08069322,-0.059450235,-0.027677735,-0.012136972,0.0341641,-0.016592227,-0.07187434,-0.013717317,0.10918759,0.06428325,0.056007437,-0.10211842,-0.0017235981,0.035407558,-0.061474618,-0.04625469,0.051284432,0.028113803,-0.018871548,-0.036547918,-0.007929857,-0.037256837,-0.029366791,0.029394282,0.050668,-0.10763954,0.053330358,-0.11794342,0.015113798,0.0073396033,0.068562776,0.010641722,0.09873829,0.0017889745,0.05393233,-0.10180866,-0.07356271,-0.033886593,0.02055506,-0.011796455,0.07858601,-0.07714843,0.0660775,0.031726874,0.09043097,0.01646768,-0.036911134,-0.08350026,0.07076939,-0.048117846,-0.06995948,-0.009502863,0.056732178
according,-0.0053291027,0.037060577,-0.0065159127,0.047635403,0.015006893,-0.061699707,-0.018362148,0.0068206,-0.009366839,0.033311877,-0.11062951,-0.056543294,0.013194262,-0.052279517,-0.047028564,0.03722046,0.048831027,0.007983496,-0.0018491828,0.10420403,0.02012653,0.016038114,-0.027081646,-0.06660008,-0.080821045,-0.069667384,-0.11383749,-0.04355842,-0.08957212,0.0889845,0.08705345,-0.06373061,-0.054145746,0.08381839,0.0001827098,0.020551492,0.040474214,0.01794935,-0.043811906,0.070560165,0.04879556,-0.030927856,-0.002142881,-0.0035000308,-0.013637382,0.05876407,-0.0007266918,-0.01885834,-0.012575111,-0.11815122,0.008623451,-0.014596596,-0.014717574,-0.028907698,-0.016290633,-0.07994877,0.013242155,0.020764735,-0.046120107,0.06727723,0.020063745,0.013705969,-0.15727791,0.077575244,0.021745445,-0.022496168,0.02022876,0.05523324,-0.10937683,0.04265925,-0.07588777,-0.0210239,-0.010350867,-0.11290032,-0.01399965,-0.04479147,-0.11850473,-0.0026558973,-0.020105628,0.029707162,0.008594668,-0.062573016,-0.064065464,0.16755666,0.13920763,0.094337426,0.017768295,0.036825147,-0.029792104,-0.016125835,-0.0034458472,-0.09935011,0.008971173,-0.05875406,-0.012006303,0.13383135,-0.11958462,0.022189029,0.043490496,-0.04957351,-0.10245289,0.017641537,0.046418495,0.003914323,0.033878937,-0.09561964,-0.058329545,-0.030223874,0.0068381303,-0.099454775,-0.03812246,-0.05615341,0.043123115,0.007057854,0.013440434,0.10814919,0.06975551,0.105099946,-0.021248616,0.07314376,0.020337498,-0.14875169,-0.028553395,0.02661194,-0.034013733,0.061042074,-0.0051145633,-0.05019569,0.022766815,-0.038819324,0.08975917,-0.102260605,0.06525,-0.16884558,-0.052086078,0.0014490989,0.0149675915,-0.031291783,0.061493754,-0.021717677,0.0970304,-0.010937284,0.05491918,0.07187224,-0.10419692,0.1214397,0.035701364,0.07373178,0.01983747,0.08264748,-0.08942419,-0.073392935,0.038519267,-0.10408961,0.008482149,0.1106303,0.09180193,0.028404724,-0.13257925,0.057907306,-0.06158727,-0.0032356197,-0.036017384,0.046721973,0.08224053,0.015703097,0.022727123,-0.008054745,0.08998455,0.07220401,0.016643478,0.027933633,-0.020900957,-0.056827545,-0.111334465,0.07397209,0.0032759053,0.05464851,0.09047679,-0.00405693,0.033003073,0.001288481,0.028874882,0.044335157,0.08573163,0.076825276,-0.13956484,0.002196733,-0.03749654,-0.09268486,0.04104889,-0.041623827,-0.040329013,-0.03473987,0.01737468,-0.033412714,0.036155373,-0.05793963,0.05698174,-0.085662045,-0.08788443,-0.035863813,0.07000568,0.042349525,0.07348422,-0.13557291,-0.025202788,-0.052129507,-0.027729513,-0.016189523,-0.013451556,-0.016116217,0.034837503,0.09330945,0.035965256,-0.03858501,-0.008350499,0.10881917,0.021043526,-0.016547527,-0.055740915,0.04627553,0.15869574,0.057422392,0.10077509,-0.042176064,-0.03038847,-0.027636554,0.07861642,-0.007638069,-0.030119296,-0.03465334,0.108659655,0.03057826,0.084047094,-0.014427804,0.016712425,0.03203771,-0.07996335,0.06160079,0.012916518,0.004855806,-0.07061662,0.013190896,-0.052450445,-0.105330355,0.054443054,0.0030390748,-0.041452467,-0.028110605,-0.11409457,0.021828929,0.06449753,0.09151143,-0.023874238,0.009766708
account,0.0013996387,0.015280403,-0.019883623,-0.013420337,0.07240401,-0.015743636,-0.003535179,-0.0008692103,0.07170801,-0.020648424,-0.098910026,0.006692693,-0.098125175,-0.091852225,0.042601548,-0.0056833443,-0.013391664,-0.015053897,-0.019353628,0.10886879,-0.021180574,-0.046632715,0.0039238995,0.011352971,-0.044583704,0.009376738,-0.042412765,0.030420352,0.0564163,0.012886329,0.05485966,-0.13641775,-0.09482183,0.042984433,0.06871956,0.04662162,0.004356549,-0.042822603,-0.05258224,0.01182739,-0.08251243,-0.01880013,-0.12978241,0.0084338905,0.0730024,0.052499022,0.047124468,0.031558476,0.03644962,-0.0146786645,-0.052953053,-0.021496534,-0.04361266,0.01824863,-0.08770546,-0.07797015,0.013969648,-0.054842353,-0.061121516,0.024847621,-0.10245088,-0.023619687,-0.041283417,-0.033545233,-0.061608896,-0.0776098,0.02084893,-0.036318555,-0.08093272,-0.041698765,0.0020207788,-0.011048753,-0.10034893,-0.10242701,-0.012788259,0.038079407,-0.058819912,-0.09056334,-0.05483527,0.05811669,0.016369153,0.022194522,-0.010557783,0.04892231,0.01889621,0.05155359,0.028590301,-0.079563975,-0.12377012,-0.0082267355,-0.017116021,-0.047143653,0.046010956,-0.046462364,-0.08749038,0.086167395,-0.055493772,0.013929545,0.04070422,-0.048075683,-0.0742543,0.057176948,0.049431484,-0.03373069,0.0048872777,-0.0028242676,-0.05557728,-0.10043523,0.038369145,-0.12195628,-0.049172796,-0.023613825,-0.06191211,0.060140412,0.0038685729,0.1123367,0.041138925,0.12691754,0.013676825,0.023647085,0.06792613,-0.11472534,-0.07175234,0.04586242,-0.07721536,-0.038397923,0.019159948,-0.12324715,-0.017248064,-0.04410466,0.0057558795,-0.09302404,0.062204283,-0.0801007,-0.08122611,-0.038139913,-0.04026257,0.015194421,0.07929307,0.012641727,0.09534925,-0.07927124,-0.12647378,0.07896225,-0.115241826,0.15085843,-0.021210305,0.038304526,-0.04617409,0.066006795,-0.05414747,0.031615585,0.07406365,-0.10001896,-0.03812494,0.070432015,0.12814601,-0.07260153,-0.08157981,-0.0256578,-0.04389072,-0.03252309,0.0006898931,0.00017389026,0.08579199,-0.0066055106,0.020665476,-0.012867878,-0.039447274,-0.04227385,0.0037014636,-0.0054822923,0.0014609088,0.08681067,-0.08321714,-0.010577172,0.08314583,0.13311401,-0.0078017,0.029229578,-0.02269295,0.060710307,0.038763244,0.06743486,0.14398684,0.09329246,-0.1831736,-0.011406444,0.0020124428,-0.12271248,0.015245524,-0.08931545,0.06266612,-0.11468834,0.06854804,0.029464087,0.073598795,-0.17066374,0.05948853,-0.005903693,-0.05671816,-0.043418124,-0.016701484,0.0414426,-0.033717252,-0.13347062,-0.08697618,-0.033783026,0.112358846,0.00071925845,-0.009737597,0.07047902,0.018292615,0.0011642575,-0.00793931,0.022752948,-0.0043003513,0.00924555,0.06479502,0.055843383,-0.023645127,-0.03275529,0.08559944,-0.09524058,0.012200876,-0.09137576,-0.02760659,-0.051018924,0.08057539,0.039207686,0.004479745,0.01007375,0.11768041,0.0033312745,-0.062072936,0.07385937,0.016207108,0.0429056,-0.07007727,-0.00010469177,0.053334728,-0.032153938,-0.03804948,0.0017161041,-0.07753658,-0.03462895,0.05592372,-0.009967731,0.0021515912,0.095704384,-0.07545948,-0.08186592,-0.024706502,0.07780657,-0.035599474,-0.052711856
accustomed,-0.09120548,-0.12935929,0.06230524,0.026225513,-0.04175564,-0.09323412,-0.008995581,-0.03436705,-0.067287564,-0.14542367,-0.06708152,-0.0063433317,-0.051110692,-0.08367467,-0.003099544,0.014477628,0.12077679,-0.04999597,0.08980166,-0.0177216,0.03679069,-0.073494606,0.008484822,0.047174934,-0.10987541,0.011463224,-0.10668181,-0.095392555,-0.0089895,0.019079398,0.09139061,-0.08504039,-0.09656454,0.04310325,-0.030404888,0.109572634,0.0564208,0.026187174,-0.009608753,0.04212857,-0.007240828,0.03840974,0.030170752,-0.042765457,-0.053048413,-0.060253266,0.072808325,-0.05561061,-0.016669864,-0.12580182,0.025781872,-0.07842916,0.0041550486,0.06261719,-0.014975135,-0.1258501,0.008296932,0.021159567,0.007909411,-0.010011989,0.07812188,0.019279819,-0.07164163,0.07135332,0.10001347,0.004918312,-0.019225603,0.09990669,-0.07957914,0.015145049,-4.4645796e-05,-0.062305167,-0.04213882,-0.119062126,-0.060216263,-0.09014213,-0.16203032,-0.0061524864,-0.018496994,0.053873546,0.010573531,-0.03175225,-0.019617774,0.12854692,0.030287364,0.057663143,0.05131802,0.017340869,0.046129584,-0.021549014,-0.025614377,-0.05076646,0.02306261,-0.04972988,0.06704471,0.02360735,-0.026949838,-0.041012004,-0.018434761,0.00053890096,-0.15537292,-0.009255964,-0.038212806,0.027903473,-0.015499426,-0.09452731,-0.077090375,-0.07548016,0.00024161878,-0.074048154,0.015277116,-0.054521844,0.05571081,0.04428229,-0.021649443,-0.0004993036,0.07090011,-0.052897714,0.036665212,-0.01606767,-0.07571272,-0.17518039,-0.060574424,0.04760327,-0.06410926,-0.026813295,-0.005949944,-0.07221954,-0.050068066,-0.028748702,-0.0034076278,-0.13177872,0.022749113,-0.14819539,0.1392323,-0.009844937,-0.037728164,-0.045610975,0.073976666,-0.09543177,0.06698959,-0.0027834205,0.044646412,-0.070501305,-0.076931946,-0.013438325,0.0035263894,0.011159346,0.07696254,-0.07481897,-0.09402684,0.037713114,0.018655373,-0.080121934,0.016500624,0.027285535,0.07627971,0.023453904,-0.08411944,0.09067111,-0.05379893,0.0029726152,-0.04298774,0.048231967,0.014157104,-0.06479371,-0.0870435,0.003795853,0.05358447,0.08441823,-0.028178038,0.100715496,0.016503472,0.030390343,-0.04705544,0.044427622,-0.04158612,0.07304198,0.025117025,0.09569702,0.036109075,0.031374387,0.051617768,0.051377468,0.07167801,0.04797168,-0.09994514,0.0650687,-0.1337338,-0.03222206,0.07947613,-0.011185623,-0.012507253,-0.04831439,0.03826588,-0.11432786,0.013784828,-0.043472238,-0.04153619,-0.124753475,-0.07336047,-0.00020214252,0.017930314,-0.011126276,0.0705196,-0.05617134,0.049947783,0.017307242,-0.041531056,-0.090613134,-0.018492287,0.063044906,0.05029799,0.09072346,0.005522778,-0.04116182,0.0923984,-0.0044310484,0.017054975,0.048478264,0.053016897,-0.005281481,0.0757033,0.059892714,-0.034215566,-0.0777463,-0.049452014,0.0064434465,0.019646335,-0.015517616,-0.08845586,0.045274068,0.030193122,-0.0013189965,0.08966158,0.0204546,0.012974168,0.015769681,-0.13375264,0.043012805,-0.010562252,0.029823344,-0.068082236,0.048459988,-0.024692783,-0.075149216,0.056494605,0.0180513,-0.05926788,-0.10668237,-0.0864904,0.09799008,0.04135192,-0.036649607,0.024095085,-3.3435194e-06
across,0.0031505923,0.006334721,0.022373639,0.036714062,-0.013029119,0.04843546,0.09049844,0.008251559,-0.028469084,0.05370649,0.057219252,0.0039330143,0.024171043,-0.013014988,0.117966704,0.09107551,0.092383705,0.061633684,-0.013779629,0.08378305,0.082702145,-0.06332347,-0.044594333,-0.05727897,-0.08910446,0.019739984,-0.06617089,-0.09169741,-0.07505404,-0.00037090952,0.023826297,-0.06937212,-0.055715766,0.042639777,-0.017816827,0.026238086,0.002048779,-0.057847947,0.07523294,0.008267473,-0.0560605,0.022929229,-0.00015837055,-0.15416726,0.089632146,-0.036995668,-0.052650847,0.011119975,0.037725076,0.08035393,0.006547086,-0.014544965,0.045786843,0.009279176,0.009498457,0.08692719,-0.009716045,0.0035508592,-0.005730253,0.035997692,-0.07031382,-0.057814803,-0.1273342,0.079973094,0.01037487,0.03538421,-0.07852781,0.09913517,-0.05604377,-0.039804295,0.016791996,-0.011241064,0.0064494577,-0.0138513,-0.07744914,-0.02989997,0.023842057,0.009100706,0.028309656,0.024339527,0.022441853,-0.021767851,0.012632702,0.18320757,-0.07260253,0.030553203,0.09548759,-0.054004144,0.09834396,-0.0094521325,-0.040936872,-0.17451067,-0.03778821,-0.009555635,0.08120067,0.07881146,-0.124324255,0.011774345,0.04105625,-0.00033074984,-0.048137244,-0.0684329,-0.032763034,0.048927274,0.064224124,-0.0060811006,0.051159408,-0.008668885,0.005609389,-0.1081962,0.06303606,0.023450484,0.02294587,0.02842583,0.026333695,0.05747948,0.037698243,-0.023373343,0.044368446,0.034355696,-0.069684945,0.025121586,0.1179452,-0.040173326,-0.054585148,0.031343274,0.0045377216,0.01087569,0.03738823,-0.05634824,0.028284302,0.03650906,0.022244122,-0.0755027,-0.027710829,-0.026089767,-0.052956462,-0.059247147,0.069092825,-0.14101961,0.06716312,-0.01230335,0.015308011,-0.01142543,-0.13662125,0.026723307,0.025338028,0.011205348,0.10294241,-0.017608872,0.00022466619,-0.04316758,-0.044613343,0.030225871,-0.07579139,0.00983201,-0.027357247,0.058085576,-0.052563418,-0.05347453,0.08345894,0.068897486,0.1433426,-0.10178149,0.026870808,-0.025451895,0.06427937,0.08110618,0.11118074,0.087100744,-0.084414184,0.0019313376,-0.09430325,-0.053699315,-0.04782711,0.023313759,-0.048759937,-0.02499231,0.17058292,-0.080742165,-0.014841538,-0.006793053,-0.06371411,-0.04582006,0.073370375,-0.07985448,-0.08170525,0.0337839,-0.008900304,-0.06846019,0.032424998,-0.026614781,-0.020387838,-0.023074107,-0.011637172,-0.004823591,-0.04628741,0.0011897146,-0.10318704,-0.06773748,-0.08240893,-0.072505906,0.07278414,-0.055670045,-0.016085295,0.0003780574,-0.11865695,-0.047497604,-0.06957032,0.019078767,0.048101977,0.0065642335,0.1876914,0.039177388,0.06729755,-0.07947689,-0.018488355,0.15134332,-0.108209684,0.05360368,-0.080988064,0.17494766,0.015774967,-0.042596962,-0.026376354,-0.024465596,0.01917533,0.04214192,-0.050010026,0.031625457,0.06475585,-0.04836915,-0.0036670326,-0.027002849,-0.02828561,0.005277149,0.030861134,-0.023704397,-0.07336666,0.008729491,-0.011844474,0.014612884,0.005957869,0.16722105,-0.033117563,0.052932244,0.10385765,0.07561669,-0.08695384,-0.028294409,-0.03226321,0.03996205,0.029825509,-0.07296866,-0.0872942,0.06827192
action,0.01866291,0.012357971,-0.0069623888,-0.038018115,0.069002956,0.03786131,0.08461744,-0.047398135,0.09650503,0.013942237,-0.039551653,0.012748967,-0.06265676,-0.032977894,-0.00818806,0.016453257,0.02055472,0.019322164,-0.13374966,0.00055345136,0.0088276565,-0.04435403,-0.022290051,-0.011098018,-0.026731268,0.033349425,0.01596672,-0.028275734,-0.01901013,-0.07676983,-0.06883866,-0.10502889,-0.062394965,0.042263944,0.023861162,0.027295794,-0.026697481,-0.15415713,0.024969136,0.026745627,-0.066685885,0.026129378,-0.058613118,-0.0959523,0.014977418,0.03450087,-0.036430232,0.05995661,-0.0132564455,0.072455816,-0.03426827,0.08746457,0.072904006,0.06428986,-0.032651924,0.0053793103,0.08502319,-0.026481528,-0.026688013,0.020160638,-0.0963123,-0.07280095,-0.06364479,0.045048118,0.058610257,-0.025741618,0.0008634418,0.044963673,-0.04806884,-0.06447339,0.06324264,0.039782166,-0.012502176,-0.12835316,0.027059032,0.018062798,-0.0064695165,-0.04536784,-0.080183424,0.0920831,0.012595783,0.0035897638,0.13020527,0.107047364,-0.003430592,0.040643834,0.08230277,-0.100495555,-0.033863667,0.042136557,-0.0032114035,-0.1540296,0.028861772,0.03357091,0.065524206,0.091083094,-0.10166776,-0.11012717,0.06003843,-0.05874144,-0.045277014,0.02339128,-0.06984622,0.03474744,0.089921854,-0.09964323,0.0037915783,-0.07112796,-0.002129797,-0.19526233,-0.08723957,-0.009336582,-0.045927886,0.060498673,0.027174609,0.0089740595,0.04451518,0.06399905,-0.018204054,0.019398436,0.06045372,-0.039014667,0.012350267,0.0028464636,0.022806041,-0.0107672075,0.06016967,-0.04782987,0.091790974,0.0337996,0.04421273,0.022915795,0.036349986,-0.02414091,-0.01711879,0.0054230583,-0.015807895,0.0829772,0.10274569,-0.04383067,0.13938484,-0.02989255,-0.021104556,0.027858378,-0.1894928,0.05669097,0.06243699,0.08717644,-0.012927299,0.08103484,0.0538054,0.015690865,-0.035035007,-0.050702725,-0.06431603,0.033865977,0.07069947,0.076264806,-0.05893598,0.08216251,-0.08972193,-0.0012818724,0.07488641,-0.078557365,0.13820912,0.049102705,0.0720149,0.019456483,-0.01983856,0.03537447,-0.01880414,-0.03492398,-0.020659868,0.047623787,-0.1287857,-0.036295116,-0.04630457,0.004059632,0.11957497,-0.01487714,-0.06378371,0.044320565,-0.068216905,-0.012917186,0.08357981,0.041010305,-0.1411666,-0.064406745,-0.03319437,-0.10008379,0.04431928,-0.07616789,0.039325163,-0.15039563,0.022291258,-0.025197858,0.03629731,-0.11781482,-0.006553028,0.098591305,-0.115234606,-0.009921942,0.068866886,-0.026239082,0.008710321,-0.07025565,-0.06627461,0.052150853,0.060718402,0.015421267,-0.0108646685,0.049164817,0.013711576,-0.0010361468,0.046975587,-0.020482952,-0.0028422698,0.10852077,-0.04001456,0.06811098,0.014356169,0.06241755,0.09516184,-0.074902005,-0.03932412,-0.06815252,0.090561904,0.009280177,-0.02939888,0.040602796,0.051879723,-0.019370778,-0.0078087617,-0.06159043,-0.04865508,-0.030017266,0.035930797,0.052019,0.011619685,-0.004733377,0.08665192,-0.03661716,0.023190347,0.13516143,-0.08074447,0.06458465,0.032262,0.08147342,-0.03704303,0.03130769,-0.11530733,-0.012249443,-0.044540923,0.028704258,-0.121654436,-0.024821557
actually,-0.05177439,-0.10744404,-0.0138479015,-0.026533784,0.06191527,0.01414333,0.0029369264,-0.005596397,-0.045333087,-0.021304248,-0.07052753,0.0148560405,0.06549451,-0.088185914,0.023169512,-0.0008455646,0.13656351,-0.02404471,0.01994648,0.0057984972,-0.045412738,-0.02784708,-0.03140739,-0.010635272,-0.03111629,0.061776668,0.05949214,-0.01185168,0.006970453,0.013277783,0.010640794,-0.017136056,-0.068798654,0.05676709,-0.027266128,0.24170677,0.0813682,0.008360224,0.035805684,-0.035801165,-0.10063705,0.06532563,0.010705957,-0.06559138,-0.061162226,0.025562517,0.041896984,-0.061931815,-0.007508903,0.030885093,0.08335715,0.009414821,0.039619293,0.08158261,-0.08214337,-0.112513244,0.01960272,0.013749482,0.06686304,0.014052332,-0.020507082,0.058375284,-0.035319526,-0.020596607,0.13019976,-0.006299734,0.025006985,0.080354355,-0.082095444,-0.036211167,0.050653424,-0.04586204,-0.0858346,-0.08469951,-0.028019056,-0.05759966,-0.1363658,-0.05851305,-0.04223523,0.056416452,0.025931882,0.021511875,0.06917215,0.041445002,0.092388354,0.070551276,0.070416965,-0.115733996,-0.077270806,-0.027499808,0.000653414,-0.095407635,0.09854273,-0.037604194,0.11053685,0.040312123,0.0059966003,-0.033658326,0.028151995,-0.060015075,-0.13071886,0.08392944,-0.03495035,0.077134006,0.057931643,-0.04382404,-0.06579416,-0.043948587,-0.004000521,-0.11080952,0.061308347,0.030020833,0.06897426,0.00851417,-0.0589158,-0.006333897,-0.004513958,-0.07965799,0.08000364,0.00075802737,-0.02756129,-0.119391814,0.007843152,0.061416004,-0.057954915,-0.061162505,0.1062227,-0.03662666,-0.061339863,-0.012947553,0.092309244,-0.036156148,-0.019715842,-0.0461583,0.10689403,-0.06705684,-0.018878384,-0.0026274289,0.038759112,-0.00849923,-0.019203452,0.063367665,0.10737403,-0.06261407,-0.057025824,0.018751282,-0.04336771,0.06561205,0.090648726,-0.03179366,-0.09966861,0.07192416,-0.08117762,-0.05250084,-0.06392783,0.061612196,0.08609277,-0.07030256,-0.048001394,0.1134625,0.043658487,-0.06074212,0.040763292,0.053801697,-0.0013883953,-0.06934843,-0.08699498,0.06152885,0.07781249,0.003010915,-0.07712128,0.11775212,0.039484896,0.075577915,-0.00023891915,0.07300891,-0.10089338,-0.019636363,0.0062176445,0.09262934,0.047843356,-0.012175616,0.040585797,0.12666586,0.038636975,0.009231194,-0.1303197,0.039351095,-0.12932703,-0.06021034,0.095273525,-0.016356705,0.107408054,-0.01854906,0.0075400607,-0.054198585,-0.005839876,-0.0699976,-0.0312064,-0.08085478,-0.086330324,-0.009526372,0.006685654,-0.02469618,0.004915209,-0.024764877,-0.013131665,0.015353542,-0.060768165,-0.11456113,-0.003801153,0.063740045,0.060959835,0.08523334,-0.08846537,-0.016857836,0.09002095,-0.009260572,-0.013733741,0.06866335,0.025118688,-0.00885715,0.0025409835,0.020412844,-0.013759821,-0.08656627,0.0018173925,0.056739017,-0.061535995,0.058280457,-0.121419676,-0.015040177,-0.0032759022,0.038081106,0.0737485,0.068151474,-0.0102615,-0.022497294,-0.0648532,-0.0949542,-0.015475408,-0.038274147,0.04932504,0.06635611,-0.07231831,-0.030976314,0.065540716,0.06202064,0.03170307,-0.082092874,-0.056598797,0.07917705,-0.09365547,-0.011078246,-0.0077209105,0.058510907
added,0.033919472,-0.11918012,0.042118423,0.076253556,0.0127760675,-0.054230556,0.027055707,-0.0026724508,-0.06469619,-0.070350654,-0.053089835,0.0059528784,-0.025457067,-0.0155754555,-0.11021779,-0.0019476573,0.036611956,-0.05107292,0.011548008,0.006928831,-0.01573232,-0.0014819462,-0.034511317,-0.02480353,-0.02853554,-0.038649537,-0.117003314,-0.05157773,0.09641713,0.006545961,0.051891588,0.05398692,-0.021558821,0.10471188,-0.046874948,0.06203491,0.11616612,-0.009660541,0.0031512813,0.034544554,0.01496453,0.049667608,0.07413634,0.057406202,-0.080035,-0.054022733,-0.075870335,-0.017171107,-0.050021153,-0.07073546,0.07425815,-0.08672504,0.07946924,0.05482939,-0.09612861,-0.11429007,0.04686456,-0.009071843,0.06454776,-0.05703293,0.0240482,0.016901352,0.044433977,0.072957225,0.07895902,-0.103254825,0.065718,-0.03176691,-0.052007053,-0.06689845,0.0016729196,-0.06564773,-0.061448902,-0.08929456,0.05430124,-0.09753669,-0.069228366,-0.010607088,-0.025453595,0.197122,-0.05999335,-0.027795635,-0.000983166,-0.005964617,-0.0038141431,0.02739017,0.033034123,-0.005763665,0.00010630214,-0.008485255,-0.010155436,0.06719195,-0.040681962,-0.019406226,0.06577393,-0.13913243,0.017128708,-0.01931964,-0.047813516,0.082968354,-0.078462884,0.04971457,-0.104293816,0.019915778,0.0061438545,0.04937608,-0.043798454,0.03523563,0.07475451,0.03720932,-0.010038007,-0.061317902,0.07443851,0.07275926,-0.07777565,-0.054919895,0.0031607612,-0.02978629,0.07476221,0.0039922423,0.002962244,-0.14180033,-0.10288405,0.05625096,-0.019056203,-0.0476957,0.041889407,-0.10030933,-0.0042552003,-0.031062486,0.042165875,-0.08168639,0.07618233,-0.00836521,0.16178013,0.09718771,0.0627969,0.016021566,0.011858489,0.009756355,-0.06274074,-0.04797895,0.058174886,0.0083133485,-0.075585864,-0.043021698,-0.08142905,-0.08130909,-0.025328483,-0.07783771,-0.035778154,-0.10662889,-0.051914427,-0.087936364,0.0452462,0.09538674,0.037197992,-0.019181376,-0.009078276,0.1001028,-0.023899473,-0.003035749,-0.06895129,0.05235628,-0.06495551,-0.036145978,-0.016141282,-0.042954557,0.010298244,-0.12125755,0.026829276,0.06634735,0.12946066,0.0532942,-0.021544145,-0.041436907,0.052762635,0.063015305,-0.0030298743,0.10316316,-0.00033040057,0.1452376,0.07788692,0.069571376,0.10734525,0.06533975,0.012077415,0.061828885,-0.06302413,0.08889966,0.069190904,-0.0681023,-0.014803105,0.0793644,-0.039880265,-0.08399899,0.020541035,-0.020071452,0.0759304,-0.019122932,0.038313247,0.069609255,0.04362488,-0.036537908,0.15061851,-0.08303664,0.08592045,-0.0005162812,0.05678645,-0.08313008,0.05104133,0.11423819,-0.07165501,0.1175547,0.039686188,0.025551146,0.08694696,0.018852418,0.006386484,0.052632235,0.038746804,-0.073107466,-0.024270246,0.022440681,0.013055467,-0.08755256,-0.07060673,-0.004317022,-0.0052949744,-0.043836474,-0.09762791,-0.024922624,0.011021477,0.041526776,0.047121238,0.054924004,-0.08615467,-0.0129950065,-0.002786098,0.10285028,-0.0033293716,0.07854933,0.13561764,0.0017958884,-0.02746381,-0.038644377,0.0032095688,0.029672503,-0.026410155,-0.06203497,0.025567967,0.018840682,0.024225583,-0.040528927,0.097946085,-0.0563796
advanced,0.0029661076,-0.0856587,-0.0005290525,-0.034800954,0.0053559244,0.121177115,0.034056563,0.05184923,-0.034262344,-0.08635543,-0.038997207,0.043209508,0.015708715,-0.01423731,0.02613132,-0.023192748,0.097714044,-0.08194951,0.08244189,-0.04709671,0.046140388,-0.07585404,0.010288468,-0.08271804,0.023636807,0.03278754,0.006275194,-0.08384796,0.03928116,0.070312366,0.033166505,-0.07433902,-0.03969257,0.1116417,-0.00791331,0.041993808,0.05568172,-0.03891785,0.0025110897,-0.020163314,-0.10869308,0.087714724,0.0045677684,-0.07514294,-0.051664423,-0.13507693,-0.010368792,0.08308155,0.08813443,0.002394064,-0.04877462,-0.016355775,0.019519145,0.17146805,-0.112765595,-0.026922977,0.035509016,0.044438366,-0.007513954,-0.021221349,-0.055187117,-0.00023576355,-0.04585674,-0.0007178085,0.10427863,0.037076198,0.07553202,0.04353661,-0.084497675,-0.10692463,-0.047759198,-0.061509326,-0.031233052,-0.039766617,-0.05110662,-0.07679487,-0.0386514,-0.056483112,-0.0407835,0.047172826,-0.038461067,0.046798196,0.022321207,0.029681858,-0.01767508,0.09996187,0.010779563,-0.0115522165,-0.04455333,-0.021652944,0.031777333,-0.14459287,0.0075465348,-0.037610393,0.1250332,-0.05426872,0.0076638325,0.012098121,0.02090328,0.03087105,-0.12801687,0.028034482,-0.035536047,0.06602525,0.07052151,0.011279101,-0.08780208,-0.007327054,0.068164706,-0.030834535,-0.002651497,-0.025838017,0.008320088,0.091180876,-0.1136423,0.11200519,-0.028481463,0.006856602,0.08219926,-0.062620126,-0.063256234,-0.101954855,-0.015079156,0.017776668,-0.05581268,-0.009667108,0.034118302,0.06871735,-0.12595321,0.020500928,-0.016041093,0.009022032,0.041351642,-0.09988379,0.16650166,-0.025770638,0.049729966,-0.01473864,0.04254172,-0.027795516,0.090951785,-0.041083615,-0.039912283,-0.027888225,-0.11692848,-0.023574462,-0.024906939,0.016642176,0.04732414,-0.06964651,0.034448314,-0.094127,-0.10409076,-0.04662056,0.019795094,0.016917368,0.022828178,-0.012258713,-0.05411251,0.011427435,-0.045539834,-0.054731004,-0.07367379,0.03512327,-0.018592535,-0.02382582,0.010640068,0.02095435,0.15444629,0.011131022,-0.07932116,0.033619445,-0.013914657,0.14934176,-0.062658995,-0.023790842,0.012573529,-0.014563371,0.02679925,0.08109814,0.11287184,0.078777686,0.018542932,-0.0780388,0.035084635,0.051417954,-0.09552677,-0.044532068,-0.12437224,-0.080773495,0.075806096,-0.13844314,0.07029035,-0.017834883,-0.07121325,-0.09949133,-0.024798483,-0.016200583,-0.10713744,-0.030559802,0.04098777,-0.033288203,-0.05629275,0.013908846,0.07405014,-0.07332962,-0.052552845,0.01476338,-0.00026392392,-0.020013329,-0.043814108,0.018184869,0.14994271,0.0065539596,-0.0188222,-0.09630012,0.021187106,0.050443176,-0.10266549,0.0911011,0.020176651,-0.07269048,-0.0076683946,-0.071010865,0.007890796,-0.021276789,0.06127859,-0.0037017677,0.039492052,0.0019433831,0.009134534,-0.019392839,0.0577838,-0.09214448,0.04095944,0.09699861,0.062124547,-0.032608293,-0.07705874,0.05517231,-0.009123823,-0.01984604,0.13467604,0.09031685,-0.10649265,-0.10100835,0.069980554,0.057045016,-0.054459263,0.0046540243,0.058284126,-0.043162204,0.013292391,-0.013559238,0.055437267,-0.030593447
africa,-0.052799117,0.0205819,0.011278956,0.01755319,0.037061237,-0.0028189674,0.09427819,0.013464659,0.06685041,0.028510582,0.03728235,0.036185164,0.026859302,0.048440713,0.019856814,0.066182695,-0.012788325,0.02263246,-0.12324063,0.00836428,0.022956563,0.005460912,-0.010320634,-0.004139727,-0.0023809797,0.013774311,-0.01250611,0.016295504,-0.05698641,-0.02967934,-0.057061575,-0.07604986,0.005375145,0.07514943,-0.049605288,0.032436855,0.05347185,-0.11162809,0.053963076,0.0013368652,-0.13101998,-0.015650917,-0.046126846,-0.11128754,0.03238238,0.015413889,-0.06216975,0.07273247,0.040942106,0.06375004,-0.036457423,0.10663046,0.01726814,0.06122761,-0.0032080058,0.036640923,0.06361125,-0.032680094,-0.016411932,0.07358996,-0.09731101,0.0016890527,-0.085793875,0.016470937,0.035801493,0.016673028,0.019176433,0.046575353,-0.07438817,0.021372808,0.04740997,0.0332219,0.0026549548,-0.07637652,-0.00040845206,-0.008032469,0.06330256,-0.049363505,-0.044899873,0.061057694,0.0022365162,0.014332444,0.11927467,0.13288853,0.018679585,0.0024432396,0.039795674,-0.0844743,-0.06126074,0.04184113,0.025165029,-0.13499132,0.07397356,0.025522942,0.13574617,0.05800843,-0.10047932,-0.11542638,0.05644212,0.048616957,-0.11045806,0.064872265,-0.053014014,0.062066063,0.072666734,-0.04028794,-0.00999076,-0.024430158,-0.04862698,-0.13390897,-0.027553437,-0.0057412204,-0.081376664,0.040396962,-0.0057410286,0.08226097,-0.008234274,0.07921745,-0.016259247,0.06622104,0.060621683,-0.03964725,0.05710145,-0.025748577,0.02175063,-0.004388189,0.029516172,-0.0533329,0.06845941,0.05171825,0.093176045,0.047517512,-0.0030997214,-0.020464925,-0.06989351,-0.036929563,-0.016167615,0.10074839,0.035593264,-0.00083267665,0.09582797,-0.029781297,-0.048202585,-0.0007364144,-0.12708148,0.09912445,0.058017433,0.05314516,0.029861135,0.077568635,0.111299306,0.006049629,-0.026801083,0.06549596,-0.079986155,0.042376347,0.029631563,0.037938118,-0.017678302,0.05822705,-0.03450278,0.0315878,0.038389333,-0.16240337,0.123110384,0.021466868,0.074761875,0.0008767431,0.0086724125,0.0239288,-0.032212425,-0.078709126,-0.05233871,-2.9273366e-05,-0.08653173,-0.029993368,-0.10471113,-0.10838386,0.14067753,-0.023163164,-0.02640603,-0.028592896,-0.076610364,-0.06074952,0.03454366,-0.02755852,-0.12034152,-0.07621467,-0.04492081,-0.14238647,0.058068674,-0.06178001,0.04113783,-0.08007456,0.043954756,-0.028932128,0.062069897,-0.13347322,-0.14896749,0.07801407,-0.06450142,0.016923236,0.019834809,-0.055245772,0.008000889,0.004525048,-0.07592587,0.024783859,-0.019635443,0.08863387,-0.0065878555,-0.009971969,0.03945275,0.021223774,0.06267175,-0.10347833,0.0101161245,0.095652945,-0.08490582,0.050577864,-0.0072188457,0.05117816,0.06604764,-0.11856343,0.044088196,-0.09216877,0.09914693,0.020590933,-0.07654628,0.071881905,0.064714834,-0.04108869,-0.026586141,-0.00042861004,-0.012438278,-0.0034354061,0.08409276,-0.024449898,-0.01444422,-0.049120672,0.0015084991,-0.047814343,0.025695728,0.11819919,-0.0025476343,0.09793268,0.066175215,0.058890525,-0.032215796,0.056062195,-0.1179083,-0.008904854,-0.054196164,-0.0057089278,-0.18007354,-0.012736998
after,0.076270856,-0.12257957,0.0083192745,-0.002313284,-0.03536942,-0.005487963,0.11710101,0.020903219,-0.05311526,0.046825334,0.05120872,-0.01066338,0.025824824,-0.070592865,0.14997615,0.11658953,0.032968115,0.061307337,0.02879991,0.023085598,-0.034873903,-0.0033177028,-0.010904534,0.04777399,-0.030843878,-0.01683738,-0.0081290705,0.036760524,-0.03948843,-0.017308239,-0.0037027772,-0.030248336,-0.024635214,0.14572115,-0.066069156,0.105947375,0.06983361,0.022191897,0.09896068,0.008324165,-0.07031985,-0.049622983,-0.046435602,0.04167912,-0.07878569,-0.044584375,0.015182571,-0.0036211733,0.03364922,0.11113509,-0.064077415,-0.012091053,0.068009265,0.008174385,0.013267499,-0.13219504,-0.12685141,-0.0027947652,-0.05895392,-0.038105045,-0.032387886,-0.010864744,0.04093219,0.074308015,-0.01988093,-0.07718499,-0.048411384,-0.032144465,-0.00085143215,-0.21299691,-0.039203387,-0.12835985,0.01748566,0.034578484,-0.0638927,0.061278906,0.12899502,-0.09130536,0.045541316,0.14828739,-0.0050275596,0.0642447,-0.008386742,-0.025657613,-0.0354854,0.0072952677,-0.0037257946,-0.116052724,0.02081053,-0.02863818,-0.116828755,-0.039675195,0.067616686,0.0012361528,0.015533489,0.014519611,0.045956004,0.18193442,-0.09682533,-0.019058991,-0.099195406,-0.051797267,0.051128253,-0.0041750115,-0.06179142,0.116856195,0.04578769,0.019109022,0.043842133,-0.05835324,0.03853833,0.044692382,0.028723877,0.052999508,0.0014435711,0.047586657,-0.025204478,-0.03647365,0.040193,0.03610948,0.00012867743,0.0336019,-0.0267091,-0.021732787,0.035886366,-0.07082792,-0.021531481,-0.033738263,-0.06841542,-0.021741321,0.12784882,-0.11459327,-0.02293188,-0.04336431,0.06059824,-0.055014804,-0.04641408,0.012485424,-0.04548235,-0.05378593,-0.014962293,0.00974614,0.095666416,0.05917989,0.057136897,0.0044135307,-0.03129288,0.05358517,0.049629726,-0.05713251,-0.08046319,-0.014069963,0.040935375,-0.008368309,0.022794154,0.0049262806,0.010116661,-0.028308319,0.0058536096,-0.043908272,0.11565667,0.04516373,0.040359583,-0.080826215,-0.049272913,-0.15148693,-0.073459476,-0.03345806,0.08241318,-0.09987592,-0.008771698,0.034354173,0.090087615,-0.021862587,-0.014169973,-0.11919844,0.0052563287,-0.012562116,0.027659634,-0.07174277,0.0521042,-0.095137335,0.061352205,-0.0248889,0.0562731,-0.019542497,-0.018336164,-0.0013921043,-0.006519029,-0.0032017652,0.012994586,-0.083274685,0.016572217,0.09044918,0.010091896,-0.05305838,-0.0025530756,0.047956917,-0.045518428,-0.014848515,0.13603635,0.035547044,-0.07081997,-0.1368813,0.08090472,-0.01267169,-0.05311355,-0.019343005,-0.08017383,-0.06065807,-0.05481213,0.010695549,0.0819466,-0.0307859,0.016384033,0.04696784,-0.0716103,0.014595655,-0.12848775,0.02769904,-0.10812882,-0.0528913,-0.0913546,0.0066053304,0.014274732,-0.06753358,-0.15617186,-0.011185147,-0.015462889,-0.0075729773,-0.069356464,-0.020785468,0.08750619,0.018762365,-0.03467426,-0.057982866,0.0014125704,0.067925535,-0.09733032,0.050431136,-0.06675358,0.072490215,-0.015042055,0.047140963,-0.009367075,-0.032355424,-0.031492345,-0.015515361,0.0011521662,0.081489764,-0.030340664,0.121286385,0.029495545,-0.10422173,0.03726927,0.061949894
again,-0.13466167,-0.06051417,0.03202557,-0.036001284,-0.060181495,-0.09984494,-0.056978926,-0.013028898,-0.028338328,-0.122595124,-0.006426577,-0.031830985,-0.058170028,0.10289883,0.07910634,-0.016480727,0.012250194,-0.025104096,0.07264641,-0.002320018,0.06385936,-0.052795142,-0.015353293,0.022673137,0.009362599,0.035650555,-0.014806478,-0.022442585,0.026347738,0.07474706,0.08302768,-0.036398645,0.0021437756,-0.013125089,-0.045508593,0.07436319,-0.044088695,0.06942035,-0.02191698,-0.113564596,-0.06921446,0.078926794,-0.07980411,-0.080797344,0.011150138,-0.058399938,0.06895944,0.000532706,0.08736369,-0.16513024,0.019404085,-0.027158115,-0.022966063,0.027361687,0.004674849,-0.040413775,-0.030482529,-0.047330048,0.013914463,0.004735717,0.07115869,0.016594246,-0.048335675,-0.15071034,-0.038071472,0.05180734,-0.047080725,0.114073604,-0.052578684,-0.031249514,0.026288142,-0.066819094,-0.05083994,0.013309966,-0.15753593,-0.01210594,-0.081451915,-0.00070013705,0.048673537,-0.07719889,0.10057185,0.01404754,-0.06302717,0.087513946,-0.048147324,-0.06933754,0.08297773,-9.722321e-06,0.03477532,-0.10490739,-0.049057975,0.042205084,-0.059941925,0.010853803,0.046702,0.037551235,-0.06846854,0.00215598,-0.017755827,0.0017703926,-0.13627467,0.00012543138,0.048356507,0.023000564,-0.04450161,0.037935525,-0.022244636,-0.13323931,-0.048895728,0.05851272,0.06650742,-0.015319416,-0.009535185,0.051764075,0.014432327,0.044921402,-0.051366054,-0.038490385,-0.050746392,0.05917989,-0.025369985,-0.027874932,0.05947362,0.023127245,-0.1435203,-0.05260444,-0.030482762,-0.08997963,-0.07069386,0.0098568555,-0.064917125,-0.08366762,0.04010814,-0.06223813,0.07034489,-0.018686453,-0.06960721,-0.04170965,0.0053321836,-0.07201988,-0.010210363,-0.055473432,-0.018348845,-0.11749282,-0.050881866,0.00347755,-0.023202252,0.046765175,0.12091396,-0.06669796,0.010715378,0.07100065,-0.0067496905,0.016225254,-0.026593115,-0.009615027,0.056073084,-0.11756802,0.023313556,0.12532148,-0.040253013,0.023078019,-0.06315296,-0.0062808357,-0.04696814,0.022419905,-0.1310689,0.03676357,0.066174515,0.0351897,-0.083222896,0.03941013,0.00014757633,0.15130565,0.073330574,0.02527799,-0.08537575,0.08255019,0.003905641,0.15850455,0.010929605,0.039950505,-0.06362148,0.015234387,0.10332699,-0.048367143,0.003833621,-0.010978559,-0.0044952305,0.0038531409,0.035701703,0.05054491,0.054866344,0.030178444,0.07711749,-0.015348461,0.04675849,-0.05342347,-0.061415523,-0.12359898,0.036623374,-0.049822647,-0.105932936,0.0988348,-0.03265833,-0.08851755,-0.06530436,-0.044259865,-0.018149637,-0.03476483,0.08484119,0.021640014,0.033784356,0.07539934,-0.009536618,-0.073111586,0.08561831,-0.07995251,-0.06250907,-0.05880935,-0.01776798,-0.00069696375,-0.09660989,-0.04613034,-0.0016189351,0.0070269094,-0.0031704812,0.04046297,-0.007837528,0.04309395,0.028692173,0.0151777,-0.043810807,0.028481241,0.046935778,0.075806536,0.05541704,-0.08017067,-0.123106346,-0.046180222,-0.022402987,0.0013056769,-0.042235233,-0.021239825,0.022365646,-0.053047493,0.14127432,0.010956276,-0.04118116,-0.12052057,0.032478463,0.10848249,0.0045935004,-0.111214094,-0.1583259,0.010230954
against,-0.025550865,-0.04885487,0.002455783,0.0061190827,-0.021025587,0.05387619,0.07586966,-0.00041472947,-0.03360156,0.111049004,-0.0521226,0.00073076156,0.014002372,-0.12739392,0.03097293,0.035807602,0.14546734,0.12889901,0.020021146,0.10556489,0.0036224334,-0.020168932,-0.08965165,-0.014269262,-0.10296904,-0.04060892,-0.016332455,-0.10284514,-0.018845165,-0.033646103,0.0012630806,-0.0038498556,-0.099340074,0.034803588,-0.011398945,0.08533935,0.0040300614,-0.054957073,0.075613454,0.042512555,0.018084425,0.009062639,0.04188722,-0.0585489,0.0075512864,0.020772887,-0.07442399,-0.06919508,-0.015162713,0.009751608,0.09263904,-0.032730736,0.09359235,-0.04493892,-0.02649805,-0.001087918,-0.039131317,-0.014966622,0.054542273,-0.056450386,0.009225633,-0.084509574,-0.09669998,0.080730796,0.07827456,-0.057676923,-0.06737995,0.062573165,-0.044436745,-0.08667318,0.013514251,-0.029025132,-0.063097335,-0.008590036,-0.032298613,-0.0115397405,-0.13896212,-0.00438796,0.0073918197,0.112815976,0.06911772,-0.040387206,-0.037282888,0.13637644,0.0047806557,0.069327086,0.10398953,-0.10775586,0.07178635,0.009729782,-0.048053432,-0.071745194,-0.0939911,-0.061130576,0.009800612,0.06794124,-0.06729902,0.024778122,0.061067116,-0.086949065,0.022073045,-0.053934343,0.019058954,0.020339794,0.022351053,0.040492203,-0.04603429,-0.08909562,0.016112395,-0.09441977,0.012067598,0.01085915,0.0900249,-0.005382079,0.074852176,-0.022608325,0.041823186,-0.084229216,-0.0041298224,0.021289608,-0.06055386,0.016482966,0.053032637,0.029030938,-0.1110236,-0.024743767,0.03391617,-0.06316793,0.034597814,-0.15418972,0.06510809,-0.009316822,0.033327207,-0.06655661,-0.014983914,-0.024805944,-0.024510404,-0.05893203,0.056275558,-0.13603327,-0.008095671,0.027700908,0.07021425,0.015036833,-0.07174766,0.02926912,-0.021354498,0.01444271,0.036234986,0.031963807,-0.13130231,-0.016388763,0.014783019,-0.10313097,-0.092247,0.045641165,0.034765318,0.068812616,-0.047119487,0.03899842,0.043478243,0.08386107,0.16395725,-0.07122642,0.04477184,-0.050062083,0.06633295,0.12364594,0.04986367,0.023450922,-0.074535996,0.075426504,-0.009108866,0.010515811,-0.046302136,0.004907389,0.008236463,0.039701227,0.07065729,-0.0040631094,-0.04340815,-0.029336,-0.011351912,0.12386656,0.111633606,-0.017692694,-0.06500979,0.102652825,0.0178665,-0.03004065,0.032120124,-0.021993136,0.0046921214,-0.050477616,-0.07338603,-0.002101405,-0.051630445,0.005031493,0.08515907,-0.1021902,-0.15875538,-0.08760723,0.09324428,-0.09041629,0.0058782264,-0.10773306,-0.073906414,-0.007970346,-0.04831258,-0.079150625,0.12097672,0.06427995,0.14229365,0.07845089,0.047950447,-0.004186951,0.013220166,0.18869491,-0.047588192,-0.0009455959,-0.030447796,0.103149995,0.030224167,-0.013308813,-0.04481642,-0.018272895,-0.02395995,0.04318636,0.010506365,-0.033861093,-0.029825203,-0.04638897,0.00857614,0.012635617,-0.032369077,-0.00919418,0.024730174,-0.008608652,-0.050630577,0.05190503,0.032369293,0.06581721,-0.025917003,0.069915384,-0.05883244,-0.008679548,0.04756656,0.06026778,-0.07123018,-0.09258463,-0.007393084,0.08031762,-0.021774808,-0.078172214,-0.003936991,0.06399833
ago,0.052116204,-0.039824445,-0.008625189,0.0148625765,0.09962377,0.026629211,0.04296993,0.027473291,-0.034530174,0.11455984,0.0389835,-0.015691742,0.12804945,-0.024650266,0.0352041,0.098047286,0.0046487264,0.011570228,-0.06214897,0.06350823,-0.079585694,-0.0509134,-0.066737436,-0.07526255,0.0052771135,0.019353572,0.06129767,0.07245669,-0.051501475,0.02418924,0.057863776,0.0043611624,-0.045642808,0.110888936,-0.023115853,0.069345154,0.10851702,0.0404996,0.07104364,-0.02502444,-0.12861374,-0.03423309,-0.011479251,-0.03857512,-0.027134769,0.010119256,0.03389146,0.0133736,-0.011011032,0.19863196,0.057857975,0.04272678,0.0091224015,0.062253248,-0.0012429012,-0.024926364,0.031884618,0.032550156,-0.014367749,-0.0678768,-0.114196144,0.08658072,0.017510671,-0.031460553,0.033374615,-0.016564716,0.0039481376,-0.054416012,-0.06521783,-0.08214371,0.079838075,-0.08191298,-0.044532675,-0.04097217,-0.033433344,-0.025790608,0.087225616,-0.06384625,-0.024704594,0.05157344,-0.075130425,-0.014741245,0.061268546,0.025035843,0.008240822,0.08943363,-9.524127e-05,-0.09376755,-0.094043605,0.032515317,-0.027226552,-0.14700726,0.10015998,-0.027897393,0.053282883,0.06991972,0.014710923,0.030890005,0.0037363234,0.009575502,-0.1328014,0.08499351,-0.025769353,-0.00087298517,0.13146375,0.027411934,0.03484254,0.12345743,0.0458313,-0.064619824,0.10999773,0.09007905,0.057151716,0.04667505,-0.007923582,0.10377724,-0.021530816,0.018280685,0.09933975,0.06017129,0.036445234,-0.09388001,0.022015033,-0.08234288,0.106885046,-0.021204663,0.048717026,-0.021100879,-0.0060658655,0.07806859,0.18793601,-0.008879724,0.03540756,-0.101003885,0.04716371,-0.038304776,-0.02503412,0.031035595,-0.08908124,-0.0029234788,0.0077939057,0.04388824,0.11525612,0.013482372,-0.013802498,0.03724481,-0.032953072,0.10879644,0.045777272,-0.056642115,-0.07399944,0.027342152,-0.13164929,0.04678464,-0.025377546,0.056209758,0.027901385,-0.10604973,-0.071569,-0.04110822,0.14790605,-0.044719648,-0.014797415,-0.014139545,-0.061621893,-0.087568246,0.027391125,-0.06802847,0.10250365,-0.05796379,-0.0141895125,0.02198923,-0.03460741,-0.040067356,-0.067004286,-0.022815177,0.026198512,-0.0572987,0.12172185,-0.08300343,0.0042592683,-0.0097310105,0.004806709,0.018600695,0.06992707,0.0020130728,-0.12378791,-0.047193892,-0.026883094,-0.03850582,0.007489598,-0.11610078,0.050159592,0.07833943,0.011901917,-0.02657649,-0.04945871,0.023825252,-0.12607798,0.026720416,0.05589559,0.047923177,0.0091903815,0.039259695,0.007843245,-0.030153578,-0.03416088,-0.026980044,-0.057296425,0.010211717,-0.07203515,-0.022096297,0.06564904,-0.008397355,-0.08364578,-0.019682491,-0.032411747,0.017534457,-0.11529661,0.023227546,-0.051178448,0.06347142,-0.071633585,0.023867898,0.011996959,-0.061983097,-0.0017408874,0.04732381,-0.1139958,0.07451415,-0.074066006,-0.10374155,0.07346836,0.05223571,-0.03867143,0.06617439,-0.048471943,0.03008929,-0.097223446,-0.054063823,-0.091362625,0.037605245,0.0643111,0.028081052,-0.030598894,0.048035555,0.058938205,0.0919674,0.0372912,0.05668058,0.0035334283,-0.0026756572,-0.06246892,0.026933504,-0.022207124,0.06482137
agreed,-0.02727138,-0.16749391,0.032931186,0.012356047,0.03225042,-0.111297555,-0.03715857,0.028288135,0.017259834,-0.12356905,-0.06438782,-0.04108441,-0.03657605,-0.04543222,-0.008065716,0.021494381,0.08609948,-0.084351465,-0.05215039,0.009847895,-0.044082396,0.034693114,0.08468216,0.08403556,0.005860649,0.00064116693,-0.03480525,-0.04379801,0.037692826,0.027078765,0.011525486,-0.06398684,0.018911282,0.13488373,-0.12555557,0.16645193,0.09284577,-0.09412037,0.0027307123,-0.0027886406,-0.11224941,0.015832886,-0.06580078,-0.004770062,-0.011548913,0.029767083,0.029754419,0.032193072,-0.02508773,-0.06626843,0.02697594,0.006668835,0.014988372,0.07436729,-0.089185305,-0.1317579,0.05325963,0.0011227877,0.066451244,0.029683782,0.007768377,0.06614197,-0.010351907,0.06826918,0.047419008,-0.045617837,0.015368847,0.028644262,-0.04819287,0.035773207,-0.0015618246,-0.033702366,-0.052365106,-0.18103655,0.0044341725,-0.036784586,-0.04984901,-0.05777792,-0.07232463,0.08393304,0.03242861,-0.0031566166,0.05857741,0.017232727,0.09251068,-0.008212453,0.06313531,-0.035827428,-0.069755405,-0.01986909,0.006646772,-0.0018345591,0.04188421,-0.03343297,0.123038344,-0.003883645,-0.017672831,-0.088621356,-0.028277734,0.023317602,-0.11343868,0.100700684,-0.071697004,0.049947403,-0.049289703,-0.064986065,-0.084085636,-0.05046834,-0.01042378,-0.101198696,-0.060709648,-0.059756547,0.053142663,0.09557395,-0.06959361,0.025405167,-0.049733352,0.06747189,0.019687694,0.05249877,0.052817453,-0.09201941,-0.055839717,0.058281593,0.020217264,-0.017545119,0.059704624,-0.058775134,-0.026498778,0.025099207,0.05497999,-0.113314345,0.03128182,-0.06250336,0.076347515,-0.015540169,-0.03552969,0.045883644,0.0016902048,-0.023071473,0.0992646,-0.10851507,0.07338661,0.00841354,-0.17136647,-0.032805465,0.05770874,0.08110328,0.07597278,0.035809487,0.040471513,0.03437159,-0.032382913,-0.040532097,0.011037991,0.06334619,0.13876386,-0.03649554,-0.06351328,0.14357962,-0.08123582,-0.009065495,-0.027873285,-0.004346207,0.08445275,0.028801987,-0.04818505,0.018739855,0.009779228,-0.059737545,0.07811663,0.023302758,0.10792507,0.05211698,-0.002229644,-0.05766464,-0.057770975,-0.0060318564,-0.0032990077,0.07131485,0.027374424,0.003609595,0.054907028,0.07814533,0.08215921,0.0399187,-0.10623178,-0.073353715,-0.10650654,-0.03800782,0.05334203,-0.04153254,0.05490304,-0.03419852,0.027991837,-0.064083144,0.15356955,-0.13326135,0.02323275,0.012492489,-0.038345862,0.07522181,-0.034126826,-0.064550035,0.036470268,-0.033155937,0.063692845,0.06678298,0.0074380487,-0.08228823,-0.08048929,0.123066895,-0.050275415,0.0862371,0.0026477878,0.06536881,0.12081602,-0.092734486,0.024232805,0.009134086,0.020494372,-0.06537553,0.023560481,-0.057190858,-0.023182672,-0.08425774,-0.055670872,-0.08258275,0.008477402,0.033294905,0.0042634076,0.09377597,-0.0020907018,0.03554748,0.08034309,0.02981994,0.027203685,-0.030972665,-0.006130461,-0.045218132,0.014697486,-0.054290656,0.043882184,0.029300865,-0.019034475,-0.00047265348,0.02548468,0.012263192,0.04511799,0.010989661,-0.107670255,0.08904322,-0.02853584,0.002898251,-0.05413764,-0.07911808
ah,-0.030617055,-0.052738983,-0.009536593,0.075093135,0.07149247,-0.056348026,-0.015690587,-0.003438923,-0.073588766,-0.028449735,-0.111241266,-0.005463325,0.012823793,-0.12187481,-0.090134814,0.02118245,0.02235307,-0.047184452,-0.039697368,-0.0063646943,-0.022274798,0.00546076,-0.07510799,-0.09735888,-0.09710446,0.015131148,-0.0652897,0.073777124,0.016565159,0.031691737,0.10642949,0.055397186,0.06248473,0.0070932102,-0.06896161,0.056440182,0.09514558,0.09299901,-0.017856155,-0.024124127,0.043841973,0.00024821053,-0.009918453,0.08916536,-0.013059889,0.014492536,-0.013568407,-0.035157338,-0.06921363,0.001029682,0.0031356167,-0.051764037,0.07945542,0.075444564,0.0102945985,-0.14656568,0.06744237,-0.000799327,0.0047169332,-0.017295312,0.05484633,0.08637105,0.066521004,-0.07640027,0.064113006,-0.14408651,0.050314546,-0.0543132,-0.095405504,-0.032432053,0.024326438,-0.02731975,-0.15083331,-0.10441057,0.108347066,-0.07349163,-0.098606035,0.022713164,-0.026117586,0.076560095,-0.056060538,-0.06309064,0.022908999,0.007831107,0.057508003,0.034015093,-0.04171067,-0.093606144,-0.11827324,-0.057274543,-0.083968475,0.02214658,-0.020668667,-0.02932006,0.009345663,-0.10501543,-0.070928685,-0.056350708,-0.082083896,0.0039210003,-0.03068225,0.024964772,-0.08248028,0.028284503,-0.033279903,-0.026816653,-0.07069177,-0.052917756,0.06582554,0.016304769,-0.07029724,-0.14165278,0.08652404,0.035708204,-0.008976344,-0.06566563,-0.10137765,-0.011792141,0.017641105,0.015728962,0.043881845,-0.16835319,-0.12286702,0.10461752,-0.06298645,-0.091279685,0.064560264,-0.058362998,-0.06481891,0.00896615,0.057816472,-0.06459998,0.08802241,-0.0429893,0.056017365,0.084550776,0.10603831,0.024339106,-0.004438018,0.035053752,-0.06237973,-0.06416907,0.03501285,0.02873102,-0.058035903,-0.013685614,-0.016713668,-0.06584578,0.03476814,-0.013712471,-0.033431616,-0.064676486,-0.05919386,-0.008764395,0.1083002,0.10325317,0.07766603,-0.030546462,0.008715257,0.09909321,0.041032698,-0.02902241,-0.08801757,0.07115772,-0.08013868,-0.020288073,-0.11985289,-0.11401629,-0.0036584958,-0.1433316,0.055571694,0.024945613,0.118863836,0.07856161,-0.033230275,-0.04796331,0.106075905,0.052160393,-0.008586821,0.12857176,0.026481926,0.05005844,-0.055875357,0.027236534,0.085169375,0.107004054,0.03177432,0.0345385,-0.004478718,0.049841225,0.005719349,-0.12949595,-0.0058993935,-0.018982597,-0.042053364,-0.059087645,0.041489843,-0.025202893,0.04197867,-0.06059854,0.041866623,0.08734563,2.4459214e-05,-0.021747926,0.117518924,0.058409367,-0.03541832,-0.002568175,0.02164807,-0.067912,0.028143289,0.10565852,-0.05468768,0.06608107,0.06889282,-0.050240666,0.021028219,0.0016621258,0.0042634853,-0.08408024,-0.023030417,-0.074376926,-0.012406289,-0.06579975,0.027835222,-0.0060340567,-0.06671989,0.003199451,-0.03620853,-0.08854365,-0.002946718,-0.019256061,0.05062,0.01808367,0.06138056,0.04202667,-0.06600255,-0.03880693,0.009994277,0.05860556,0.04554882,0.04311759,0.0746629,-0.057139326,0.023626706,0.04943549,0.06489335,0.033391573,0.008244653,-0.058517613,-0.0025064321,-0.0063699097,-0.024635123,-0.040320978,-0.05539535,-0.029181875
air,-0.10660617,0.040505763,-0.028451016,-0.06319456,0.08010946,0.017536482,0.0102328295,0.004448234,0.14883663,0.005113431,-0.04268971,0.009091773,-0.04792679,0.04623821,-0.018936358,-0.043065146,-0.0058063627,0.020620063,-0.06510681,0.020114468,0.003825996,-0.025949443,-0.043225065,-0.05390753,0.0041927975,0.052609887,0.03451866,-0.07326601,-0.015036874,-0.026458306,0.028765474,-0.1651238,-0.09975184,0.117018834,0.014020239,-0.023334164,-0.027534096,-0.07626495,-0.008681243,-0.0031714803,-0.076893896,0.05698901,-0.109188564,-0.10556343,0.044552825,0.01472749,-0.02219071,0.026086861,-0.07693007,0.046860185,-0.046838757,0.1128325,-0.0073442534,0.025826067,-0.021927688,0.021098394,0.07787121,-0.026192296,-0.097916335,-0.04544186,-0.06702768,-0.051581267,-0.056080896,-0.055712257,0.027675182,0.048481207,-0.014324445,0.08805255,-0.02856597,-0.03369835,0.07871521,-0.008955199,-0.027141307,-0.051470682,-0.03027008,-0.0053812307,-0.006928869,0.050234966,-0.039213695,-0.007361526,0.024937032,-0.055952128,0.0802043,0.0454663,-0.07896774,0.039240435,0.07162226,-0.039922796,-0.043073725,0.010373557,-0.0070222737,-0.089209974,-0.068664685,-0.030108675,-0.004208361,0.05163213,-0.108214855,-0.14968309,0.10139326,-0.047404088,-0.06871903,-0.03530486,-0.098903425,0.01715038,0.06745696,-0.117915146,-0.060881976,-0.14986886,0.032962248,-0.14528306,-0.06868492,-0.048391826,-0.0008607259,0.070716895,0.045531806,0.012780208,-0.001208691,0.026480462,-0.08729841,-0.025898943,0.039627325,-0.060494434,0.022505753,0.0973771,-0.04593258,0.04004144,0.038886975,-0.05681389,0.014680099,0.06314169,-0.04116793,0.035221655,-0.014236121,-0.03579104,0.0144360205,-0.028738087,-0.052614525,-0.0029395728,-0.00920596,-0.1458098,0.12809904,-0.05095375,-0.026771761,0.050921425,-0.21042685,0.010792912,0.029661853,0.057685576,0.06525382,0.041413426,-0.0019100509,0.08032343,-0.07122771,-0.026523668,-0.07887285,-0.047386475,0.10729684,-0.035394832,-0.041527804,0.08410797,-0.06702734,-0.044704963,0.074509576,0.0042758617,0.10177791,0.08305485,0.0355306,0.08681386,-0.06327692,0.011878195,0.031340517,-0.022047417,-0.07554647,0.11093658,-0.15384041,-0.072292425,0.007528212,0.05228141,0.077641435,0.050484035,-0.066867515,0.09576977,-0.10934743,0.040953696,0.08357963,-0.019549236,-0.09568384,-0.051602073,0.048236884,-0.056272928,-0.00048579325,-0.005199187,0.04611348,-0.06962194,0.019978957,-0.043635212,0.031150853,-0.14879669,-0.012324727,-0.020451581,-0.088669844,0.011135103,-0.016492274,0.07614438,-0.04846038,-0.0699726,-0.040708084,0.018024849,0.05631763,-0.014982905,0.01576808,0.023087017,0.04003025,-0.051257532,-0.0118101295,0.0026471922,0.05797066,-0.010389793,0.002661115,0.05532418,-0.0041865106,0.11636443,0.026306339,-0.032447223,-0.037514225,-0.0019242747,0.04012829,0.009032772,0.08779293,0.05635671,0.11537884,-0.040148716,0.055149022,-0.07835839,0.07886584,0.009049303,0.12144959,-0.041616242,-0.030270725,0.009926951,0.12305458,-0.026435548,0.03933779,0.033932775,-0.1152595,-0.033004932,0.060172208,0.08437175,-0.0112860305,-0.03672455,-0.04026776,-0.025937596,-0.065272,0.059224058,-0.10795034,-0.03101063
all,-0.10747293,-0.03473663,-0.005422475,0.043879516,0.03996841,-0.08086566,-0.019108552,-0.06386585,0.010500327,-0.07821997,0.0033386433,-0.009075929,0.03461228,-0.0022376282,0.07482246,0.10429888,-0.03406279,-0.1164422,-0.09082122,0.037931245,-0.04061782,-0.035273038,-0.023941953,0.045046646,-0.11592378,0.062873475,0.116780505,-0.04766061,0.07190205,-0.017653394,0.031122386,0.086027935,-0.03059987,0.0065736924,0.026319278,0.11000514,0.0027052518,0.0569241,-0.047439773,0.043194234,0.00378685,0.066282645,-0.040591337,0.07636625,0.046234205,0.115439154,0.06747639,-0.06525408,0.0216317,-0.049084626,0.05186888,0.0823872,-0.035122287,0.06572804,-0.04463128,0.02707362,0.09584086,-0.018283136,0.087067224,0.033848044,0.026158255,0.12218582,0.043496132,0.020129828,-0.009929974,-0.09203329,-0.056709807,0.034291647,0.028218886,0.04391888,0.06512899,-0.006731622,-0.1502813,-0.083956845,0.027469998,0.056476098,0.018241009,-0.026635429,-0.099752136,-0.07870828,0.01686655,-0.035601966,0.04608739,0.038900614,0.05926309,-0.072889894,0.054378446,0.04536787,-0.041371234,-0.05687383,0.036667526,-0.09918729,0.072448045,-0.109726615,0.11191455,0.05377981,-0.06543287,0.0345281,0.05606499,-0.03090756,-0.10751898,0.14747827,-0.047905598,0.049388792,-0.095704876,-0.064598516,-0.03573717,-0.038383767,-0.10415178,-0.08921146,0.059402924,-0.005310694,0.07813244,0.017545564,-0.020757092,0.05332389,0.046233,0.031136591,-0.016664656,0.013518366,0.059360232,0.03638023,-0.0019273239,0.020349722,0.050640322,-0.016104788,0.06660871,0.027035963,0.04924927,0.09258227,-0.004037519,-0.016722787,-0.04593207,-0.10818233,0.03204065,-0.05110057,-0.101457246,-0.0040472257,-0.09099514,0.06210185,-0.041965,-0.07634961,-0.040090546,-0.056976784,-0.09630987,0.035578277,-0.0066952254,0.11424158,0.09919327,0.03822151,0.015799979,0.056783475,-0.04906956,-0.012312826,-0.04546695,-0.00880056,0.120856576,-0.059473086,0.017346675,0.004920291,0.016543508,-0.02801152,0.0716779,0.10044733,-0.04094182,0.1233897,-0.030287718,0.08805315,0.031894453,0.0842927,-0.06831923,-0.024215,0.04667639,0.0061105974,0.026271796,0.007071275,-0.04252477,-0.041999884,-0.015295821,0.09564604,0.015174641,-0.023068313,-0.013121436,0.02617175,-0.0360223,0.09109312,-0.036513027,-0.016288968,-0.10292977,-0.016418194,-0.029217431,0.09293125,-0.0005493999,-0.09054984,0.007377974,0.0010265306,0.020178024,-0.09278231,0.06678029,-0.041625336,-0.091448426,-0.039976805,-0.060231004,0.05160536,-0.0031237302,0.06827872,0.027815077,0.041047577,0.06267043,-0.025452632,-0.104706466,0.08526892,0.04395432,-0.02407072,-0.1238321,0.10159425,-0.0079487655,-0.10360799,0.05877436,-0.020521699,0.02382759,0.010330812,0.074440345,-0.0023768044,0.015832942,-0.0025983318,0.07354668,-0.09563738,-0.13653882,0.04016382,0.044525012,0.064534016,-0.026067007,0.04109384,0.1280279,0.0092317145,-0.032972332,0.0778862,-0.033998296,-0.053666558,-0.04678559,-0.08475826,-0.067872375,0.0077656377,0.08551261,-0.012332332,-0.001454345,0.03298546,0.049751747,-0.15641806,-0.116757154,-0.0066285874,-0.05190831,0.07866461,0.013570562,-0.12086385
allow,-0.06391814,-0.047058236,0.014817075,0.022324368,0.021411084,-0.0646372,-0.08249002,-0.047137603,-0.012272965,0.067870885,-0.092925556,-0.004172552,0.031000014,-0.12449763,-0.07804698,0.008190572,0.02398671,0.025331168,0.028401423,0.034256022,-0.040335663,0.00598804,-0.0646217,0.01955995,-0.097550094,-0.054881804,-0.001509643,0.006347396,-0.0417881,0.036206543,0.094107196,0.065917656,-0.078428246,-0.013618691,-0.053296436,0.08880544,0.01363604,0.07721198,0.004186792,-0.002808641,0.0020478438,0.029224502,0.029654756,0.031707074,-0.035068087,0.01521822,0.07562793,-0.11546128,-0.045557965,-0.1218022,0.10504922,-0.011347222,0.016611561,-0.011653798,-0.0037205128,-0.14494799,0.014080227,0.0019924073,0.04481685,-0.040049005,0.10119568,0.14017472,-0.10404191,-0.034782007,0.064286076,-0.028301569,-0.010341194,0.03312201,-0.07566985,0.049492773,0.006169276,-0.09859904,-0.10475742,-0.034986433,-0.04219355,-0.04659864,-0.24950935,-0.013878654,0.015557797,0.045930985,-0.01441872,-0.079500146,-0.02853704,0.118964374,0.15366356,0.03137389,0.026665796,-0.016927201,-0.043141626,0.035733413,-0.017751647,0.04483306,-0.027722398,-0.059072062,-0.04674949,0.05678317,-0.00675859,-0.02606406,0.014589088,-0.055668827,0.01596789,0.06666098,0.02938163,-0.034390263,0.0056054275,-0.048743963,-0.073969804,-0.0507976,-0.015342796,0.036658227,0.02394261,-0.06721479,0.10149296,-0.017933104,0.10629746,-0.05230692,0.034261737,-0.0697884,-0.08040931,0.023089675,0.028546209,-0.142992,0.0034136942,0.05203581,-0.057735793,-0.09127565,-0.0058186487,-0.16454947,0.004089394,-0.032457173,0.09863642,-0.080401115,0.042253874,-0.0903004,0.02450275,-0.029849628,0.0027436607,0.02781089,-0.03285404,-0.08345989,-0.10920044,0.070777364,0.100251816,0.0052330024,0.03489242,0.042038966,0.0039390367,0.027291484,0.021825068,0.07447512,-0.14651896,0.034532562,0.034629975,-0.04663371,-0.03941613,0.0388571,0.07816226,-0.033571515,-0.041544188,0.09502491,-0.022174481,0.0371765,-0.024178935,-0.020326385,0.031492803,-0.09138672,-0.04411039,0.01955424,-0.0031246822,0.0140891755,-0.018648474,0.051339626,0.024280796,0.024802221,-0.025889248,0.057985615,-0.03885835,0.042696066,0.007848767,0.08433774,-0.03957058,-0.024429644,0.0073676473,0.2009435,0.09268403,0.0827308,-0.054485317,0.054955658,-0.058510154,-0.023700915,0.07988867,0.024408353,-0.040073056,0.030369028,0.02398431,-0.0414661,-0.0050189556,-0.029474063,0.05712164,-0.08561555,-0.1070778,-0.026148438,0.02058223,-0.00742232,0.07086756,-0.10027211,0.036145292,-0.027539112,-0.035515264,-0.08688077,0.070899904,-0.0028095492,-0.038093,0.14762071,-0.0074183876,-0.042656846,0.06157685,0.08223347,0.008697455,-0.104790606,0.07162,-0.03926517,0.03786428,0.049921136,0.0128302835,-0.021987569,-0.0902652,0.036498614,0.07911003,-0.035589408,-0.13907406,-0.0050411834,0.06907531,0.0977855,0.06883,0.010750046,0.0023658928,-0.0048908545,-0.064162135,0.019628447,0.0015204037,-0.008080553,-0.11035024,-0.05299038,0.017663019,-0.04897343,0.05280742,0.040127847,0.004618176,-0.103782825,-0.10182086,0.0853154,0.0013105216,0.01021808,-0.07835842,0.054824553
allowed,-0.09657125,-0.13469405,0.019274058,-0.012387726,-0.022066686,-0.07173441,0.033022173,-0.011644314,-0.058870092,-0.028858883,-0.054815277,-0.0038203779,0.01253282,-0.06491479,-0.036661126,0.0011616382,0.12249266,0.012132758,0.10409695,-0.019569026,0.010000633,-0.0978704,-0.036071993,0.061948456,-0.08268162,0.017980313,-0.08013821,-0.0600933,0.05744036,0.018827768,0.053504724,-0.017497888,-0.113110796,0.0051280395,0.0024209572,0.07459784,0.012419147,-0.030791217,0.027115887,0.059039097,-0.033599366,0.054354206,0.08295515,-0.036780696,-0.059394583,-0.11254791,0.03555462,-0.04731026,0.011203163,-0.1981104,0.105816565,-0.036894076,-0.035105407,-0.030530738,-0.020815307,-0.11632253,-0.012897806,-0.0036096268,0.037157156,-0.043168414,0.040448096,0.072835624,-0.05781504,0.074852295,0.13541712,-0.007119023,0.04844677,0.082877055,-0.02441641,0.018646313,-0.023803944,-0.05140153,-0.08556675,-0.06449795,-0.13808438,-0.078808755,-0.17399366,-0.023176018,0.017353399,0.11363489,-0.0123105,-0.029996669,-0.029869273,0.12968633,0.06469109,0.013107513,0.03321705,-0.022448514,0.028467124,-0.022342857,0.0027083613,0.0065047727,-0.0034436502,-0.047894638,0.056149457,0.021444604,0.012013488,-0.026957633,0.029980995,0.016836341,-0.045162614,0.027762484,-0.016646873,0.041329775,0.026041439,0.022291332,-0.12144439,-0.10263965,-0.040274847,0.02555456,0.049788203,-0.023910725,0.020485744,0.017244777,-0.00872928,-0.017945366,0.08370141,-0.1066717,0.02387274,0.014782639,-0.07440608,-0.14135918,-0.044942137,-0.0067761214,-0.087086014,-0.03472751,0.021223113,-0.12861152,-0.0128152305,-0.031469263,0.020418039,-0.05779357,-0.015686395,-0.07277444,0.12410307,-0.07839897,-0.0127374735,-0.013027215,0.026217666,-0.107086025,-0.01824596,0.07098758,0.052603018,-0.07668116,0.036458828,-0.041892886,-0.08806501,0.02650862,0.011567384,-0.0685721,-0.09671563,0.059796855,0.008781081,-0.03953153,-0.035654534,-0.0016706545,0.0075517446,-0.04515141,-0.05912557,0.13859151,-0.071537524,0.057949495,-0.03241103,-0.00081768975,-0.009303778,-0.0891045,-0.09597836,0.028130833,-0.0032398659,0.045197483,-0.053867545,0.09635213,0.015856626,0.040992845,-0.047039453,0.063803665,-0.05413734,0.0544069,0.01099388,0.06832105,0.004716466,-0.0038376038,0.027244134,0.0603396,0.11065822,-0.004180413,-0.16513194,0.07853835,-0.13866463,-0.034515437,0.08202125,-0.029152239,-0.0040629045,0.01147833,-0.0142981,-0.10875936,-0.0046456805,-0.021224938,-0.0046463734,-0.09906262,-0.03371976,-0.035130657,0.007986161,-0.012026265,0.06001369,-0.08759306,0.053108662,0.0021462603,-0.03850654,-0.07331949,0.075100206,0.03716092,0.046749428,0.16450153,-0.015276993,-0.06182333,0.07102955,0.042593706,-0.03447615,0.034013048,0.11535761,-0.058688343,0.0430045,0.07841863,0.010672927,-0.06653571,-0.049994078,0.023486307,0.02684684,-0.030298337,-0.10352081,0.06154179,0.0056780074,0.03152131,0.044905227,0.059969928,0.05019731,0.0035045582,-0.16858211,0.027882162,-0.046928342,0.015528619,-0.059345085,0.048349638,-0.015698258,-0.049107477,0.03577826,0.032316703,0.029576559,-0.10009836,-0.05861132,0.113374166,0.03409306,-0.09187595,0.011332319,0.005921349
almost,-0.07381689,-0.09639592,0.017352706,-0.037221767,0.02542787,0.022423562,-0.051146645,-0.012399337,-0.0082646655,-0.087898664,-0.09369549,0.015831728,-0.052359406,-0.17333165,0.0637561,-0.026931105,0.1514681,0.031969998,0.014333193,-0.038422506,-0.028345171,-0.025519619,0.015748946,0.08492295,-0.027385417,0.04630457,0.120331645,-0.023563597,-0.035903964,-0.07411116,0.03211327,-0.128713,0.0035637836,0.043817326,-0.101233244,0.0744074,0.096427016,-0.027547905,0.083192125,-0.03386619,-0.09190975,-0.044026215,-0.12734447,-0.11008483,-0.028424222,0.07243431,0.0934872,0.011084768,-0.087811396,0.12800959,0.037712906,0.059611127,0.04903026,0.09034928,-0.02149146,0.01501072,0.010209543,0.0096457265,0.021868747,-0.060510598,0.068033814,-0.013165394,0.020764029,0.07045812,0.06713723,0.054178502,-0.10389758,-0.0037485452,-0.01749145,-0.0049451045,0.14932968,0.021208672,-0.013432276,-0.03353322,0.022481717,0.01996966,-0.08204086,0.00043222183,0.012020325,0.016721852,0.09306921,0.0019093913,0.05030334,0.02181559,-0.044422425,0.08389401,0.076703124,-0.062703885,-0.0074363155,-0.017519297,-0.08505757,-0.07463774,-0.020739056,-0.06639083,0.02151542,0.051917695,0.0038132898,-0.08746524,0.053381816,-0.10930734,-0.063735455,-0.028436137,-0.018258313,0.02008103,-0.040992524,-0.09492906,-0.029723369,-0.1341509,0.03658232,-0.17528012,-0.027665196,-0.0002161256,0.062900424,0.0226072,0.004118618,-0.066356145,-0.015234444,-0.045684643,0.03681008,-0.012822088,-0.024194796,-0.022732269,-0.012807977,0.06932588,-0.026149228,-0.08253291,-0.024863146,-0.01308852,-0.07858187,-0.032087345,-0.02915202,0.025805628,0.029644419,-0.08421442,0.068972334,-0.0063025663,-0.08320615,-0.07044261,0.0046969927,-0.08990431,0.11618299,0.022960532,0.08838457,-0.0958854,-0.13211668,-0.09472273,0.0559432,-0.06365869,0.1164805,0.037457217,-0.07734689,0.16307943,-0.03924458,-0.074188486,0.037973005,0.024668612,0.1593877,0.068816714,-0.04688756,0.036280133,-0.050271194,-0.048136156,0.09115563,-0.065068915,0.009595793,-0.04715701,0.044946864,-0.012034213,-0.011470245,-0.05211369,0.029352255,0.037704498,0.0012254837,0.05037626,-0.028583761,-0.023039559,0.057873145,0.023651194,-0.0041855113,0.0002877037,-0.04179209,-0.014828039,-0.023131918,0.1367241,0.07050615,-0.024678031,-0.04321992,0.041481577,0.08770454,-0.001967649,-0.048360474,-0.054163404,0.06803106,-0.100535944,-0.012468774,0.018723948,0.016118528,-0.030496003,-0.02558512,-0.025701534,-0.0901938,0.054591935,0.015935741,-0.0647294,-0.071711496,0.005194537,-0.014323979,0.06526045,-0.059310164,-0.11010379,-0.05826346,0.10702999,0.06661301,-0.014710957,-0.008494264,0.096317485,0.04157357,-0.04099926,-0.028998781,-0.017986981,0.024226032,0.065145016,-0.014685338,-0.029812075,-0.16350548,0.019265296,-0.035632852,0.021058153,-0.012108412,0.025801674,0.010493578,0.10125868,0.044522014,-0.088156804,0.016981505,0.0077264337,0.05301413,-0.032425404,-0.013907605,-0.074751005,0.052018993,0.053791396,0.0041405396,0.06747751,-0.07946255,0.11475035,0.07283165,0.03126372,0.011169688,0.005806475,-0.009284015,0.03954528,-0.080521084,-0.028513387,-0.082095094,0.010531061
alone,-0.072141856,-0.026094945,0.013148899,-0.003582954,-0.014916173,-0.1081718,-0.0801725,-0.016856221,-0.070763424,-0.106846295,-0.0724371,-0.05897178,-0.052264035,-0.037604727,0.029351937,-0.019181075,0.0808986,-0.08360042,0.021777807,0.019685645,0.014667523,-0.0058024223,-0.049038082,0.024457164,-0.061199605,0.040495805,-0.047173724,-0.004715101,-0.016114993,-0.010177901,0.07412136,-0.050145406,-0.0067805117,-0.038876534,-0.03543488,0.18156958,0.015354878,0.023269681,-0.051026165,-0.06353638,-0.03122339,0.052487712,-0.03046362,-0.0069215633,-0.006164881,0.009973873,0.08677108,-0.03829582,-0.012075759,-0.08837956,0.011931672,-0.049480375,0.09397146,0.028534198,-0.020211073,-0.15469538,0.026998725,0.021956377,0.06483951,0.09702926,0.0820481,0.033413745,-0.011053698,-0.065821335,0.042260356,-0.03219848,-0.033537548,0.10948995,-0.09359354,-0.01997737,0.040968988,-0.055934235,-0.04796851,-0.08563866,-0.050026666,-0.031650014,-0.11711587,-0.015385445,-0.020280136,-0.061587855,0.087690204,-0.052356202,0.018246345,0.024735143,0.02629366,-0.051338002,0.09778969,-0.07159177,-0.05260086,-0.059502654,-0.03660244,0.06937771,0.067634396,-0.011727425,0.01614682,-0.009695458,-0.06136239,-0.03337036,-0.04466793,-0.056104835,-0.07653536,0.0342705,-0.051130217,0.033530064,-0.06427795,-0.057178754,-0.015077414,-0.033085637,0.0007355676,0.018699145,-0.00021814933,-0.07555173,0.0110497875,0.032305606,-0.1041003,-0.06958939,-0.07388933,-0.055012185,0.0037696015,0.046755332,-0.0056116525,-0.10007321,0.03616581,0.064233534,-0.105419055,-0.067649886,0.08564001,-0.1000901,-0.011239837,-0.05422777,-0.024856932,-0.14530611,0.064795345,-0.002549786,0.05429735,-0.013702208,-0.044350494,0.014063868,0.106363624,0.021699453,-0.025700942,0.00488978,0.07043226,-0.0067531476,-0.09392557,0.02897006,0.051353402,0.02909904,0.101214334,-0.09280199,-0.00075323496,0.09567924,0.015716335,0.0033258125,0.002050585,0.0678002,0.057507947,-0.040057242,0.038021617,0.117609054,0.03695695,-0.010501595,-0.029439354,0.031342313,-0.02310174,-0.013166116,-0.13720739,0.042911634,-0.026223503,0.016105711,-0.03921953,0.08806179,0.14471585,0.08374009,0.116548076,0.13818726,-0.15175994,0.07289199,-0.041865796,0.17368783,0.0076618264,0.022971097,0.06717147,0.0681781,0.015469157,0.0015158816,-0.0035911296,0.039447583,-0.049272284,0.018783066,0.054429844,0.12559317,0.0817905,-0.013284192,0.099647,0.0027734,0.06329683,-0.08444739,-0.024866126,-0.10122826,-0.026146736,-0.033951633,-0.011376353,0.053306542,-0.0023538952,0.028716538,-0.0043527926,-0.049035355,-0.016929837,-0.08632814,-0.0014307409,0.07852873,-0.04019503,0.11440563,-0.023229264,-0.062944405,0.13579224,-0.03939775,0.042677194,0.009280269,0.029977096,-0.016772421,0.0033444867,0.012538104,0.012810578,-0.047715977,0.045440853,0.020928396,-0.03946095,0.07221472,-0.07732098,-0.059566095,-0.09301861,0.096104644,0.08414154,0.07273091,-0.015278083,-0.06750902,-0.041047826,-0.08189923,0.0370065,-0.07633417,-0.018736647,-0.06359472,0.006987018,-0.013420177,0.09167157,-0.0012927674,0.016011886,-0.15188828,-0.11725928,0.09342956,-0.053533375,-0.022153256,-0.12924497,0.04208811
along,-0.053168572,-0.033117805,0.045697212,0.03254083,-0.03139902,0.02527359,0.07860215,0.049723916,-0.07225853,-0.0178178,0.076175585,-0.00608518,-0.05402662,0.03472938,0.09557088,0.033098355,0.12508897,0.012132617,0.026096381,0.050723556,0.11659019,-0.017668182,0.0061997715,-0.10457509,-0.048610985,-0.011480379,-0.065202065,-0.1273852,-0.091652304,0.013166796,0.042152192,-0.040045783,-0.0075043603,0.07258395,-0.058864236,0.04901067,0.030650867,-0.032530703,0.0801605,-0.025895264,-0.06229513,0.06131243,0.022385202,-0.12615415,0.046578426,-0.039226055,-0.08097164,0.02379217,0.058413226,0.07566615,0.02242423,-0.07478953,0.0198829,0.036684416,-0.012308614,0.081938565,-0.0016532663,-0.027471412,0.040849783,0.072655775,-0.0074298154,-0.059688643,-0.11450759,0.02426409,-0.029156798,0.061628047,-0.07868979,0.11013423,-0.01913301,-0.050197277,0.032830015,-0.010042956,0.007439623,0.034536786,-0.067754626,-0.044228207,-0.0078081996,-0.03129422,0.014813143,0.018034535,0.039207045,0.018609155,-0.021047816,0.1026711,-0.12644172,-0.0009068396,0.10413633,-0.07751595,0.13536215,-0.024652893,-0.062939644,-0.11775271,-0.06167326,0.008673541,0.14739227,0.026673319,-0.124297,0.0024802187,0.011048066,0.020447431,-0.061340373,-0.033949345,-0.042061873,0.07218986,0.007865849,-0.015891997,0.03741694,-0.021044139,-0.015781771,-0.06778621,0.024857135,-0.0023764614,0.033906437,0.06301407,-0.0079567265,0.026216121,0.015444645,-0.01810941,0.037622195,-0.011620742,-0.08785017,0.091269895,0.10044943,-0.018267501,-0.081668295,0.034208387,0.01593212,0.07037615,-0.0020463176,-0.10222574,0.0011338765,-0.003273361,-0.037897598,-0.041101262,0.03060678,-0.016690789,-0.043299597,-0.14004056,0.05382256,-0.1172544,0.039970636,-0.074707665,-0.0041995333,-0.051414683,-0.10425349,-0.02884923,0.008429487,-0.054437682,0.15041988,-0.0003119486,0.04295938,-0.09298712,-0.020411594,0.03825774,-0.09429809,-0.02229223,0.014786276,0.06512917,0.014061595,-0.017043253,0.050261986,0.046783227,0.1511566,-0.099026695,0.0097919395,0.005351854,0.03204105,0.15169819,0.1244118,0.068999864,-0.096326314,-0.033182528,-0.031350356,-0.0083667105,0.031776432,-0.009632123,-0.05613143,-0.054052923,0.13189015,-0.02701236,0.010343119,0.038718253,-0.02551224,-0.053240042,0.050616708,-0.08390382,-0.03717785,0.029712826,-0.027127234,-0.020878257,0.049011923,0.018789824,-0.028655516,0.016262991,-0.04694979,-0.01411368,-0.046863895,-0.008716579,-0.07938628,-0.10309431,-0.06164225,-0.06334394,-0.008809465,-0.049419247,-0.030453572,0.045494296,-0.06910114,-0.0615383,-0.04432918,0.012874836,0.052747443,0.053171918,0.22737409,0.059704658,0.046834417,-0.060781237,0.007745272,0.12554802,-0.121180855,0.042147167,-0.053571567,0.12747301,-0.021904524,-0.048789173,-0.015575327,-0.0060142516,0.04932666,0.03873324,-0.03151782,0.06553755,0.095235534,0.0093318345,0.01013428,-0.09474558,0.0047421814,-0.032502778,0.028108096,-0.09174378,-0.03325219,0.02279319,-0.02351234,0.0025015145,0.012206982,0.14792748,-0.029930448,0.01408397,0.070203505,0.06007182,-0.12930112,-0.048476405,-0.003486468,0.03766476,0.03631455,-0.046300173,-0.11493262,0.0528219
already,-0.08986301,-0.09275996,0.0384812,0.004715054,-0.06564188,-0.011549298,0.059594806,-0.051427502,0.0076263654,0.015867703,0.0050190906,-0.026235834,0.002670332,0.036345363,0.072791085,0.10061698,0.04325906,0.030137328,-0.03128238,-0.06102736,1.6256334e-05,0.00090207206,0.0011785883,0.12419139,0.047297224,0.017796636,0.07225839,-0.062415354,-0.003227303,-0.099219084,0.06749526,-0.04486664,0.014709472,0.0637484,0.0032386214,0.15221827,0.068238534,-0.04692839,0.07397329,-0.10303815,-0.08110758,-0.0077387877,-0.034527168,-0.109136656,-0.056191955,0.008390585,0.040933244,0.019411674,0.003011202,0.09513898,0.05376995,0.047413923,0.09384712,0.0949336,-0.081957094,0.00874919,0.007021614,0.10587512,0.023851635,-0.025222307,0.021888526,-0.09254727,0.034117624,0.020614544,0.09964206,-0.025101237,-0.022739066,0.059603274,-0.08219296,-0.07751076,0.064824134,-0.022491025,0.090265006,0.021707254,0.011801198,-0.030828424,-0.017341778,-0.05309598,-0.024203576,-0.012450994,0.093021244,0.017138043,0.06015342,0.0017421328,-0.031989,0.06437065,0.103958845,-0.12322086,-0.01848027,0.011781406,0.029083207,-0.10264182,0.12206143,-0.14495514,0.12809128,-0.03251398,0.055711225,-0.01029055,0.028079199,-0.039281208,-0.14364782,0.006626263,-0.078343354,0.04179065,-0.02360417,-0.0039194208,-0.037167363,-0.009691548,-0.04345332,-0.16421603,0.12325802,0.062097464,-0.056591645,-0.028074818,-0.08409342,0.022530979,-0.08294682,-0.14410296,0.0021162566,0.025703562,-0.0690362,-0.073552236,0.07203955,-0.02792589,-0.012529111,-0.026902415,0.10041517,-0.0427823,0.052149706,-0.083542734,0.029965606,-0.036881942,-0.012875832,0.011577653,0.031777952,0.0387081,-0.08539646,-0.015124968,0.05383702,0.029121127,-0.025879662,0.06237587,0.049018957,-0.08098565,-0.09042648,0.05145394,0.08645948,0.07874425,0.09055253,-0.10116591,-0.054879438,0.14172266,-0.03048527,-0.053278647,-0.011098388,-0.009873436,0.022379553,0.075955816,0.083157346,0.04294057,0.09784801,-0.0052071954,0.04381153,-0.08251179,0.0642725,-0.06449321,0.028489,0.05830722,0.00433807,0.0024590667,-0.0067972676,0.026207706,0.063040435,0.026770743,0.023712901,0.0774054,-0.10883961,0.053053882,-0.009047425,0.013025022,0.06686336,0.012433397,0.056327615,0.04260088,0.032460447,-0.0996713,-0.014079555,0.07240632,-0.06182851,-0.01125697,-0.0032918202,0.0020399112,0.09074099,-0.05626771,0.079436705,0.017585175,0.023025278,-0.029577082,-0.053304788,0.010995199,0.05526529,-0.011142109,0.030452283,0.016711807,-0.114829555,0.02991346,0.007879048,-0.013583005,-0.023942808,-0.03142004,-0.05290504,0.028660258,0.10377231,0.054270085,-0.06990478,0.004366662,0.023512857,-0.04322673,-0.014629647,0.039258055,-0.02558764,0.016769193,-0.035073522,0.010333619,0.040424585,-0.008633408,0.16301486,0.026941739,-0.12695156,0.09858483,-0.042846322,-0.12595268,-0.09550035,0.09268537,0.008910298,0.082470715,-0.0076863575,-0.028344287,-0.06544033,-0.056952734,-0.048663277,0.0553942,0.09584588,0.096150115,-0.11434521,0.033726435,-0.003989275,0.07816104,-0.025616597,-0.051298555,0.01347075,0.08994917,-0.059822466,-0.07397975,0.04512296,0.038351677
